{"learner":{"attributes":{"best_iteration":"205","best_score":"0.04837195308377949","scikit_learn":"{\"_estimator_type\": \"classifier\"}"},"feature_names":["hour","is_weekend","is_holiday","month","vehicle_count","avg_speed_kmh","delay_minutes","day_of_week_enc","junction_name_enc","weather_enc","event_nearby_enc","anomaly_cause_enc","is_peak_morning","is_peak_evening","is_night","is_peak","hour_sin","hour_cos","month_sin","month_cos","avg_event_impact","avg_event_attendance","event_count","speed_x_volume","delay_per_vehicle"],"feature_types":["int","int","int","int","float","float","float","int","int","int","int","int","int","int","int","int","float","float","float","float","float","float","int","float","float"],"gradient_booster":{"model":{"cats":{"enc":[],"feature_segments":[],"sorted_idx":[]},"gbtree_model_param":{"num_parallel_tree":"1","num_trees":"708"},"iteration_indptr":[0,3,6,9,12,15,18,21,24,27,30,33,36,39,42,45,48,51,54,57,60,63,66,69,72,75,78,81,84,87,90,93,96,99,102,105,108,111,114,117,120,123,126,129,132,135,138,141,144,147,150,153,156,159,162,165,168,171,174,177,180,183,186,189,192,195,198,201,204,207,210,213,216,219,222,225,228,231,234,237,240,243,246,249,252,255,258,261,264,267,270,273,276,279,282,285,288,291,294,297,300,303,306,309,312,315,318,321,324,327,330,333,336,339,342,345,348,351,354,357,360,363,366,369,372,375,378,381,384,387,390,393,396,399,402,405,408,411,414,417,420,423,426,429,432,435,438,441,444,447,450,453,456,459,462,465,468,471,474,477,480,483,486,489,492,495,498,501,504,507,510,513,516,519,522,525,528,531,534,537,540,543,546,549,552,555,558,561,564,567,570,573,576,579,582,585,588,591,594,597,600,603,606,609,612,615,618,621,624,627,630,633,636,639,642,645,648,651,654,657,660,663,666,669,672,675,678,681,684,687,690,693,696,699,702,705,708],"tree_info":[0,1,2,0,1,2,0,1,2,0,1,2,0,1,2,0,1,2,0,1,2,0,1,2,0,1,2,0,1,2,0,1,2,0,1,2,0,1,2,0,1,2,0,1,2,0,1,2,0,1,2,0,1,2,0,1,2,0,1,2,0,1,2,0,1,2,0,1,2,0,1,2,0,1,2,0,1,2,0,1,2,0,1,2,0,1,2,0,1,2,0,1,2,0,1,2,0,1,2,0,1,2,0,1,2,0,1,2,0,1,2,0,1,2,0,1,2,0,1,2,0,1,2,0,1,2,0,1,2,0,1,2,0,1,2,0,1,2,0,1,2,0,1,2,0,1,2,0,1,2,0,1,2,0,1,2,0,1,2,0,1,2,0,1,2,0,1,2,0,1,2,0,1,2,0,1,2,0,1,2,0,1,2,0,1,2,0,1,2,0,1,2,0,1,2,0,1,2,0,1,2,0,1,2,0,1,2,0,1,2,0,1,2,0,1,2,0,1,2,0,1,2,0,1,2,0,1,2,0,1,2,0,1,2,0,1,2,0,1,2,0,1,2,0,1,2,0,1,2,0,1,2,0,1,2,0,1,2,0,1,2,0,1,2,0,1,2,0,1,2,0,1,2,0,1,2,0,1,2,0,1,2,0,1,2,0,1,2,0,1,2,0,1,2,0,1,2,0,1,2,0,1,2,0,1,2,0,1,2,0,1,2,0,1,2,0,1,2,0,1,2,0,1,2,0,1,2,0,1,2,0,1,2,0,1,2,0,1,2,0,1,2,0,1,2,0,1,2,0,1,2,0,1,2,0,1,2,0,1,2,0,1,2,0,1,2,0,1,2,0,1,2,0,1,2,0,1,2,0,1,2,0,1,2,0,1,2,0,1,2,0,1,2,0,1,2,0,1,2,0,1,2,0,1,2,0,1,2,0,1,2,0,1,2,0,1,2,0,1,2,0,1,2,0,1,2,0,1,2,0,1,2,0,1,2,0,1,2,0,1,2,0,1,2,0,1,2,0,1,2,0,1,2,0,1,2,0,1,2,0,1,2,0,1,2,0,1,2,0,1,2,0,1,2,0,1,2,0,1,2,0,1,2,0,1,2,0,1,2,0,1,2,0,1,2,0,1,2,0,1,2,0,1,2,0,1,2,0,1,2,0,1,2,0,1,2,0,1,2,0,1,2,0,1,2,0,1,2,0,1,2,0,1,2,0,1,2,0,1,2,0,1,2,0,1,2,0,1,2,0,1,2,0,1,2,0,1,2,0,1,2,0,1,2,0,1,2,0,1,2,0,1,2,0,1,2,0,1,2,0,1,2,0,1,2,0,1,2,0,1,2,0,1,2,0,1,2,0,1,2,0,1,2,0,1,2,0,1,2,0,1,2,0,1,2,0,1,2,0,1,2,0,1,2,0,1,2,0,1,2,0,1,2,0,1,2,0,1,2,0,1,2,0,1,2,0,1,2,0,1,2,0,1,2,0,1,2,0,1,2,0,1,2,0,1,2,0,1,2,0,1,2,0,1,2,0,1,2,0,1,2,0,1,2,0,1,2,0,1,2,0,1,2,0,1,2,0,1,2,0,1,2,0,1,2,0,1,2],"trees":[{"base_weights":[8.621025E-3,-7.1104574E-1,1.3610929E0,-7.333924E-1,4.965957E-1,1.4411893E0,1.6764024E-1,1.0540537E-1,-7.4068326E-1,-9.667779E-2,9.20339E-1,5.062954E-1,1.4609715E0,-1.01561025E-1,1.1336842E0,-2.9862389E-2,4.3390554E-1,-7.454061E-1,-4.4187197E-1,3.1276593E-1,-4.384616E-1,1.0559682E0,-1.9000003E-2,1.1663414E0,-1.3410144E-1,1.2044519E0,7.4607454E-2,-3.8831174E-1,4.8123163E-1,6.225322E-2,2.6311476E-2,-1.7355414E-2,8.603306E-1,-7.468527E-1,-4.3057E-1,1.2127656E-1,-6.0188687E-1,-1.5000002E-2,4.9646014E-1,-3.1046515E-2,5.20408E-3,5.9279996E-1,1.237931E0,5.20408E-3,7.063636E-2,-5.3801656E-1,3.3428568E-1,1.3400801E0,8.4708816E-1,-6.6908526E-1,-1.4571433E-1,6.7162627E-1,-2.3852462E-2,-2.2894738E-2,1.5821917E-2,4.7903225E-2,1.9054053E-2,-2.7413798E-2,-3.7403207E-2,-2.8892621E-2,1.9811303E-3,3.195652E-2,-1.6111113E-2,-3.4482356E-2,4.180326E-3,9.657533E-3,4.1938778E-2,8.294116E-3,6.030612E-2,3.8333334E-2,6.8809524E-2,-2.8378395E-3,-3.3387102E-2,-1.7195124E-2,3.431507E-2,6.849474E-2,3.277778E-2,1.0024388E-2,5.7666667E-2,-1.1326533E-2,-3.6119137E-2,-2.1221202E-2,9.915252E-3,-7.105265E-3,4.213693E-2],"categories":[],"categories_nodes":[],"categories_segments":[],"categories_sizes":[],"default_left":[0,0,0,0,0,0,0,0,0,0,0,0,0,0,0,0,0,0,0,0,0,0,0,0,0,0,0,0,0,0,0,0,0,0,0,0,0,0,0,0,0,0,0,0,0,0,0,0,0,0,0,0,0,0,0,0,0,0,0,0,0,0,0,0,0,0,0,0,0,0,0,0,0,0,0,0,0,0,0,0,0,0,0,0,0],"id":0,"left_children":[1,3,5,7,9,11,13,15,17,19,21,23,25,27,29,-1,31,33,35,37,39,41,-1,43,45,47,-1,49,51,-1,-1,53,55,57,59,61,63,-1,65,-1,-1,67,69,-1,-1,71,73,75,77,79,81,83,-1,-1,-1,-1,-1,-1,-1,-1,-1,-1,-1,-1,-1,-1,-1,-1,-1,-1,-1,-1,-1,-1,-1,-1,-1,-1,-1,-1,-1,-1,-1,-1,-1],"loss_changes":[6.3874766E3,1.1597827E2,2.1747168E2,2.5863281E1,1.9864002E1,3.8560547E1,3.7811504E1,8.783217E0,5.4362793E0,4.8299623E0,8.562008E0,1.965647E1,1.4654785E1,1.9210257E1,1.3101959E0,0E0,5.081E0,1.4294434E0,6.218643E0,1.9320484E0,1.9752586E0,2.613449E0,0E0,5.6628113E0,4.7617726E0,9.89624E0,0E0,5.065873E0,7.252741E0,0E0,0E0,2.1360369E0,1.307087E-1,4.423828E-1,1.5617702E0,3.8357582E0,3.306694E0,0E0,1.0384092E0,0E0,0E0,3.299366E0,6.2018585E-1,0E0,0E0,7.290096E-1,3.0554771E0,2.294098E0,1.2856606E1,5.722561E-1,4.208376E0,4.6609564E0,0E0,0E0,0E0,0E0,0E0,0E0,0E0,0E0,0E0,0E0,0E0,0E0,0E0,0E0,0E0,0E0,0E0,0E0,0E0,0E0,0E0,0E0,0E0,0E0,0E0,0E0,0E0,0E0,0E0,0E0,0E0,0E0,0E0],"parents":[2147483647,0,0,1,1,2,2,3,3,4,4,5,5,6,6,7,7,8,8,9,9,10,10,11,11,12,12,13,13,14,14,16,16,17,17,18,18,19,19,20,20,21,21,23,23,24,24,25,25,27,27,28,28,31,31,32,32,33,33,34,34,35,35,36,36,38,38,41,41,42,42,45,45,46,46,47,47,48,48,49,49,50,50,51,51],"right_children":[2,4,6,8,10,12,14,16,18,20,22,24,26,28,30,-1,32,34,36,38,40,42,-1,44,46,48,-1,50,52,-1,-1,54,56,58,60,62,64,-1,66,-1,-1,68,70,-1,-1,72,74,76,78,80,82,84,-1,-1,-1,-1,-1,-1,-1,-1,-1,-1,-1,-1,-1,-1,-1,-1,-1,-1,-1,-1,-1,-1,-1,-1,-1,-1,-1,-1,-1,-1,-1,-1,-1],"split_conditions":[6.7059064E2,1.3861274E1,3.2968964E1,2.8241112E1,6.1640985E2,1.1811702E1,1.4482616E1,5.796708E2,6.3854443E2,3.1537916E1,3.6192482E1,2.7636444E1,7.7579663E2,7.5238696E2,1.7691824E0,-2.9862389E-2,1.2260084E1,2.4194828E4,3.1817343E1,3E0,1.5387053E1,4E0,-1.9000003E-2,7.051838E2,2.0240518E4,2.9812696E1,7.4607454E-2,1.1488862E1,3.7692757E1,6.225322E-2,2.6311476E-2,-2.4492937E-16,2.7363552E1,3.036606E1,1E0,4E0,2.3366469E4,-1.5000002E-2,7E0,-3.1046515E-2,5.20408E-3,6.5456616E2,1.4482616E1,5.20408E-3,7.063636E-2,2E0,2.9189014E-3,1E0,2.0870957E4,1E0,2.3101893E4,2.0514758E4,-2.3852462E-2,-2.2894738E-2,1.5821917E-2,4.7903225E-2,1.9054053E-2,-2.7413798E-2,-3.7403207E-2,-2.8892621E-2,1.9811303E-3,3.195652E-2,-1.6111113E-2,-3.4482356E-2,4.180326E-3,9.657533E-3,4.1938778E-2,8.294116E-3,6.030612E-2,3.8333334E-2,6.8809524E-2,-2.8378395E-3,-3.3387102E-2,-1.7195124E-2,3.431507E-2,6.849474E-2,3.277778E-2,1.0024388E-2,5.7666667E-2,-1.1326533E-2,-3.6119137E-2,-2.1221202E-2,9.915252E-3,-7.105265E-3,4.213693E-2],"split_indices":[4,6,5,5,4,6,6,4,4,5,5,5,4,4,20,0,6,23,5,10,6,10,0,4,23,5,0,6,5,0,0,18,5,5,12,8,23,0,8,0,0,4,6,0,0,7,24,1,23,7,23,23,0,0,0,0,0,0,0,0,0,0,0,0,0,0,0,0,0,0,0,0,0,0,0,0,0,0,0,0,0,0,0,0,0],"split_type":[0,0,0,0,0,0,0,0,0,0,0,0,0,0,0,0,0,0,0,0,0,0,0,0,0,0,0,0,0,0,0,0,0,0,0,0,0,0,0,0,0,0,0,0,0,0,0,0,0,0,0,0,0,0,0,0,0,0,0,0,0,0,0,0,0,0,0,0,0,0,0,0,0,0,0,0,0,0,0,0,0,0,0,0,0],"sum_hessian":[6.560444E3,4.282222E3,2.2782222E3,4.2048887E3,7.733333E1,2.1346665E3,1.4355554E2,3.5999996E1,4.1688887E3,3.2444443E1,4.4888885E1,4.4888885E1,2.0897776E3,1.12888885E2,3.0666664E1,1.1111111E1,2.4888887E1,4.102222E3,6.6666664E1,1.4666666E1,1.7777777E1,4.0888885E1,3.9999998E0,2.1777777E1,2.311111E1,2.311111E2,1.8586665E3,7.599999E1,3.6888885E1,2.4888887E1,5.7777777E0,1.2444444E1,1.2444444E1,4.0817776E3,2.0444443E1,1.4666666E1,5.1999996E1,3.111111E0,1.1555555E1,1.3333332E1,4.444444E0,1.2888888E1,2.7999998E1,4.444444E0,1.7333332E1,1.2444444E1,1.0666666E1,1.6533333E2,6.577777E1,3.422222E1,4.1777775E1,3.1111109E1,5.7777777E0,5.333333E0,7.1111107E0,9.333333E0,3.111111E0,2.7999998E1,4.0537776E3,1.5555554E1,4.8888884E0,6.666666E0,7.9999995E0,4.622222E1,5.7777777E0,7.1111107E0,4.444444E0,8.444444E0,4.444444E0,7.9999995E0,1.9999998E1,3.111111E0,9.333333E0,3.5555553E0,7.1111107E0,1.5733333E2,7.9999995E0,2.1777777E1,4.3999996E1,4.444444E0,2.9777777E1,2.311111E1,1.8666666E1,5.333333E0,2.5777777E1],"tree_param":{"num_deleted":"0","num_feature":"25","num_nodes":"85","size_leaf_vector":"1"}},{"base_weights":[9.603236E-3,1.1868675E0,-6.404374E-1,1.4534231E0,-3.0618563E-1,-6.96485E-1,4.3692547E-1,1.4904675E0,9.6350193E-1,2.1171658E-1,-5.756757E-1,-7.377886E-1,-4.191373E-1,1.3526758E0,-4.8587993E-1,9.356757E-1,7.479199E-2,3.215827E-1,6.289054E-2,-2.515261E-1,6.7649186E-1,-6.4182013E-1,2.3502262E-2,-5.487927E-1,-7.450098E-1,8.1184024E-1,-6.321774E-1,7.256184E-2,4.9646014E-1,-1.3495706E-1,-6.783252E-1,6.464602E-2,3.222222E-1,5.396104E-2,1.4355297E-1,4.39726E-1,-3.5111567E-1,4.5256722E-1,1.2294117E0,1.9811303E-3,-6.58643E-1,-1.6077353E-1,3.9E-2,4.0295854E-1,-6.994237E-1,-3.732318E-2,-5.315353E-1,1.1169336E0,2.9340655E-1,-2.899666E-1,-3.637822E-2,5.2924525E-2,-0E0,3.7741932E-1,-3.1358495E-1,-3.5864443E-2,-4.3211013E-1,3.2755103E-2,-6.219514E-3,-1.9204175E-3,4.4999998E-2,-1.5000002E-2,4.9E-2,-2.4268296E-2,1.9172913E-3,1.4914039E-2,5.804348E-2,6.904959E-2,2.4512194E-2,-1.3791949E-2,-3.4394298E-2,2.3571428E-2,-1.882979E-2,-1.7195124E-2,3.0328466E-2,-1.9832218E-2,-3.7075475E-2,1.9E-2,-3.563415E-2,6.970588E-2,3.98E-2,2.4545435E-3,3.0384615E-2,1.242857E-2,-1.792135E-2,-1.7195124E-2,1.9054053E-2,3.868421E-2,-9.000002E-3,1.1557376E-2,-2.302817E-2,-7.105265E-3,-3.122951E-2],"categories":[],"categories_nodes":[],"categories_segments":[],"categories_sizes":[],"default_left":[0,0,0,0,0,0,0,0,0,0,0,0,0,0,0,0,0,0,0,0,0,0,0,0,0,0,0,0,0,0,0,0,0,0,0,0,0,0,0,0,0,0,0,0,0,0,0,0,0,0,0,0,0,0,0,0,0,0,0,0,0,0,0,0,0,0,0,0,0,0,0,0,0,0,0,0,0,0,0,0,0,0,0,0,0,0,0,0,0,0,0,0,0],"id":1,"left_children":[1,3,5,7,9,11,13,15,17,19,21,23,25,27,29,31,-1,33,-1,35,37,39,41,43,45,47,49,-1,51,53,55,-1,57,-1,59,61,63,65,67,-1,69,71,-1,73,75,-1,77,79,81,83,-1,-1,85,87,89,-1,91,-1,-1,-1,-1,-1,-1,-1,-1,-1,-1,-1,-1,-1,-1,-1,-1,-1,-1,-1,-1,-1,-1,-1,-1,-1,-1,-1,-1,-1,-1,-1,-1,-1,-1,-1,-1],"loss_changes":[5.0397744E3,9.329426E2,2.565244E2,3.440039E1,4.9798504E1,4.578003E1,1.7848805E2,3.8603516E0,2.6411514E1,2.6551474E1,9.364082E0,4.2506104E0,1.382918E2,8.02066E0,6.9481506E0,3.9266891E0,0E0,5.9723334E0,0E0,4.4060574E0,6.882992E0,2.509407E0,3.5485163E0,1.9442513E1,5.234375E-1,1.185099E1,1.4329239E1,0E0,3.503323E0,3.6610947E0,2.2426987E-1,0E0,1.4725738E0,0E0,5.4582586E0,3.603643E0,2.9273863E0,4.4740553E0,1.0405865E0,0E0,2.0236511E0,2.9120805E0,0E0,3.090384E0,1.0659676E0,0E0,4.725701E0,2.9906654E0,2.2336328E0,3.774644E0,0E0,0E0,1.1358075E0,2.4811172E0,2.4868379E0,0E0,5.106168E-1,0E0,0E0,0E0,0E0,0E0,0E0,0E0,0E0,0E0,0E0,0E0,0E0,0E0,0E0,0E0,0E0,0E0,0E0,0E0,0E0,0E0,0E0,0E0,0E0,0E0,0E0,0E0,0E0,0E0,0E0,0E0,0E0,0E0,0E0,0E0,0E0],"parents":[2147483647,0,0,1,1,2,2,3,3,4,4,5,5,6,6,7,7,8,8,9,9,10,10,11,11,12,12,13,13,14,14,15,15,17,17,19,19,20,20,21,21,22,22,23,23,24,24,25,25,26,26,28,28,29,29,30,30,32,32,34,34,35,35,36,36,37,37,38,38,40,40,41,41,43,43,44,44,46,46,47,47,48,48,49,49,52,52,53,53,54,54,56,56],"right_children":[2,4,6,8,10,12,14,16,18,20,22,24,26,28,30,32,-1,34,-1,36,38,40,42,44,46,48,50,-1,52,54,56,-1,58,-1,60,62,64,66,68,-1,70,72,-1,74,76,-1,78,80,82,84,-1,-1,86,88,90,-1,92,-1,-1,-1,-1,-1,-1,-1,-1,-1,-1,-1,-1,-1,-1,-1,-1,-1,-1,-1,-1,-1,-1,-1,-1,-1,-1,-1,-1,-1,-1,-1,-1,-1,-1,-1,-1],"split_conditions":[6.4921913E0,1.346615E4,4.929902E1,1.19218955E4,1.4944054E4,4.346111E1,1.4270328E4,4.2569355E1,4.6037457E1,4.6644665E1,5.1434723E1,7.382193E0,1.3366185E4,1.3652411E4,1.6262116E4,1.0798209E4,7.479199E-2,4.017309E0,6.289054E-2,3E0,5.205868E1,3.1271675E0,1.1E1,1.2927261E4,1E0,1.2431194E4,1.5451893E4,7.256184E-2,5.0776455E1,-5E-1,2E1,6.464602E-2,2E0,5.396104E-2,2E0,-5.6324095E-1,4.5067352E1,3E0,1.4612689E4,1.9811303E-3,1.5191904E4,1.5582652E4,3.9E-2,3E0,1.4175991E4,-3.732318E-2,1.4612689E4,1.105445E4,4E0,6.80999E0,-3.637822E-2,5.2924525E-2,5.1740604E1,1E0,1E0,-3.5864443E-2,1.7776229E4,3.2755103E-2,-6.219514E-3,-1.9204175E-3,4.4999998E-2,-1.5000002E-2,4.9E-2,-2.4268296E-2,1.9172913E-3,1.4914039E-2,5.804348E-2,6.904959E-2,2.4512194E-2,-1.3791949E-2,-3.4394298E-2,2.3571428E-2,-1.882979E-2,-1.7195124E-2,3.0328466E-2,-1.9832218E-2,-3.7075475E-2,1.9E-2,-3.563415E-2,6.970588E-2,3.98E-2,2.4545435E-3,3.0384615E-2,1.242857E-2,-1.792135E-2,-1.7195124E-2,1.9054053E-2,3.868421E-2,-9.000002E-3,1.1557376E-2,-2.302817E-2,-7.105265E-3,-3.122951E-2],"split_indices":[6,23,5,23,23,5,23,5,5,5,5,6,23,23,23,23,0,6,0,10,5,6,3,23,14,23,23,0,5,18,0,0,7,0,11,16,5,11,23,0,23,23,0,3,23,0,23,23,7,6,0,0,5,9,7,0,23,0,0,0,0,0,0,0,0,0,0,0,0,0,0,0,0,0,0,0,0,0,0,0,0,0,0,0,0,0,0,0,0,0,0,0,0],"split_type":[0,0,0,0,0,0,0,0,0,0,0,0,0,0,0,0,0,0,0,0,0,0,0,0,0,0,0,0,0,0,0,0,0,0,0,0,0,0,0,0,0,0,0,0,0,0,0,0,0,0,0,0,0,0,0,0,0,0,0,0,0,0,0,0,0,0,0,0,0,0,0,0,0,0,0,0,0,0,0,0,0,0,0,0,0,0,0,0,0,0,0,0,0],"sum_hessian":[6.583555E3,2.3417776E3,4.2417773E3,1.987111E3,3.5466666E2,4.032444E3,2.0933333E2,1.8453333E3,1.4177777E2,1.2133333E2,2.3333331E2,3.5079998E3,5.244444E2,1.04888885E2,1.04444435E2,1.9555553E1,1.8257777E3,4.5333332E1,9.6444435E1,6.0888885E1,6.0444443E1,2.1022221E2,2.311111E1,1.3244444E2,3.3755554E3,7.6888885E1,4.4755554E2,9.333333E1,1.1555555E1,3.7777775E1,6.6666664E1,1.1555555E1,7.9999995E0,7.5555553E0,3.7777775E1,7.1111107E0,5.3777775E1,4.4444443E1,1.5999999E1,4.8888884E0,2.0533333E2,1.911111E1,3.9999998E0,1.7777777E1,1.1466666E2,3.3497776E3,2.5777777E1,4.7555553E1,2.9333332E1,9.8666664E1,3.4888885E2,4.8888884E0,6.666666E0,9.333333E0,2.8444443E1,5.5555553E1,1.1111111E1,4.444444E0,3.5555553E0,3.1111109E1,6.666666E0,3.111111E0,3.9999998E0,3.9999996E1,1.3777777E1,3.7777775E1,6.666666E0,1.2444444E1,3.5555553E0,1.5555554E1,1.8977777E2,4.444444E0,1.4666666E1,3.5555553E0,1.4222221E1,1.5555554E1,9.911111E1,3.9999998E0,2.1777777E1,2.3555553E1,2.3999998E1,1.7333332E1,1.1999999E1,1.0666666E1,8.799999E1,3.5555553E0,3.111111E0,5.333333E0,3.9999998E0,5.7777777E0,2.2666666E1,5.333333E0,5.7777777E0],"tree_param":{"num_deleted":"0","num_feature":"25","num_nodes":"93","size_leaf_vector":"1"}},{"base_weights":[-3.4062454E-4,3.0841112E-1,-7.0359826E-1,-5.995848E-1,1.0224298E0,-7.264106E-1,6.68571E-2,-6.885535E-1,3.576249E-1,1.1281254E0,-7.511116E-2,-2.6140356E-1,-7.400142E-1,3.514745E-1,-5.906833E-1,3.4035216E-3,-7.150368E-1,9.0074533E-1,-2.3234904E-1,3.2382268E-1,1.2750635E0,-3.4047475E-1,9.0554273E-1,3.437956E-1,-4.7298706E-1,-6.3882357E-1,-3.744648E-2,1.7697157E-1,5.7E-2,-2.8378395E-3,-3.4624066E-2,-3.3000004E-2,2.8367344E-1,-5.661787E-1,-3.682408E-2,5.257728E-2,1.0029289E0,-3.233767E-1,4.1065574E-2,9.5749384E-1,-5.6995627E-2,1.1567006E-1,1.306975E0,4.6626502E-1,-4.864806E-1,1.1787878E0,2.8344825E-1,4.4433963E-2,-0E0,-3.570423E-2,-1.6077353E-1,-7.018299E-1,-4.2963994E-1,4.4611394E-1,-2.1879704E-1,5.0454546E-2,3.1914675E-4,-3.4024917E-2,-1.5551305E-2,2.6311476E-2,-2.9000003E-2,3.801663E-2,6.5262295E-2,3.6528476E-3,-2.3487233E-2,2.8723383E-3,5.3264465E-2,-1.1864868E-2,3.649606E-2,6.1853934E-2,-6.555558E-3,6.842137E-2,3.5018694E-2,-2.9693881E-2,3.4952153E-2,-1.5748963E-2,-3.3443764E-2,7.0527956E-2,4.210345E-2,-1.1823532E-2,4.4999998E-2,1.5461537E-2,-2.7162164E-2,4.9115024E-3,-2.6688313E-2,-3.583574E-2,-1.6475413E-2,-5.1459875E-3,-3.006438E-2,-5.000002E-3,3.9297517E-2,7.105261E-3,-2.2411767E-2],"categories":[],"categories_nodes":[],"categories_segments":[],"categories_sizes":[],"default_left":[0,0,0,0,0,0,0,0,0,0,0,0,0,0,0,0,0,0,0,0,0,0,0,0,0,0,0,0,0,0,0,0,0,0,0,0,0,0,0,0,0,0,0,0,0,0,0,0,0,0,0,0,0,0,0,0,0,0,0,0,0,0,0,0,0,0,0,0,0,0,0,0,0,0,0,0,0,0,0,0,0,0,0,0,0,0,0,0,0,0,0,0,0],"id":2,"left_children":[1,3,5,7,9,11,13,15,17,19,21,23,25,27,29,31,33,35,37,39,41,43,45,47,49,51,-1,53,-1,-1,-1,-1,55,57,-1,59,61,63,-1,65,67,69,71,73,75,77,79,-1,81,-1,83,85,87,89,91,-1,-1,-1,-1,-1,-1,-1,-1,-1,-1,-1,-1,-1,-1,-1,-1,-1,-1,-1,-1,-1,-1,-1,-1,-1,-1,-1,-1,-1,-1,-1,-1,-1,-1,-1,-1,-1,-1],"loss_changes":[1.4240875E3,2.955365E3,3.5283997E1,1.7118E2,2.9619702E2,1.2001587E1,1.1100622E1,3.3729065E1,5.5140327E1,2.7451733E2,5.880352E1,7.474388E0,1.0856934E0,5.3693104E0,8.5808134E-1,1.2896267E1,5.0997314E0,7.5937653E0,8.155199E0,8.725883E1,7.250586E1,2.1182152E1,7.6977806E0,2.8515577E0,3.0177584E0,1.7014236E0,0E0,3.8721445E0,0E0,0E0,0E0,0E0,9.748428E0,6.329994E0,0E0,3.5290914E0,4.643852E0,4.5419254E0,0E0,1.2989014E1,3.2236675E1,1.518614E1,7.021216E1,7.2531834E0,4.421303E0,1.1623268E0,5.4437037E0,0E0,1.9038587E0,0E0,2.0388484E0,3.3225632E-1,2.1171556E0,4.1270523E0,1.3179805E0,0E0,0E0,0E0,0E0,0E0,0E0,0E0,0E0,0E0,0E0,0E0,0E0,0E0,0E0,0E0,0E0,0E0,0E0,0E0,0E0,0E0,0E0,0E0,0E0,0E0,0E0,0E0,0E0,0E0,0E0,0E0,0E0,0E0,0E0,0E0,0E0,0E0,0E0],"parents":[2147483647,0,0,1,1,2,2,3,3,4,4,5,5,6,6,7,7,8,8,9,9,10,10,11,11,12,12,13,13,14,14,15,15,16,16,17,17,18,18,19,19,20,20,21,21,22,22,23,23,24,24,25,25,27,27,32,32,33,33,35,35,36,36,37,37,39,39,40,40,41,41,42,42,43,43,44,44,45,45,46,46,48,48,50,50,51,51,52,52,53,53,54,54],"right_children":[2,4,6,8,10,12,14,16,18,20,22,24,26,28,30,32,34,36,38,40,42,44,46,48,50,52,-1,54,-1,-1,-1,-1,56,58,-1,60,62,64,-1,66,68,70,72,74,76,78,80,-1,82,-1,84,86,88,90,92,-1,-1,-1,-1,-1,-1,-1,-1,-1,-1,-1,-1,-1,-1,-1,-1,-1,-1,-1,-1,-1,-1,-1,-1,-1,-1,-1,-1,-1,-1,-1,-1,-1,-1,-1,-1,-1,-1],"split_conditions":[7.423306E2,2.5288449E2,3.3205006E1,6.7406683E0,1.34554825E1,1.259531E1,1.4482616E1,4.5067352E1,4.7559013E1,5.8231473E0,3.38046E1,7.7579663E2,1.4482616E1,3.8898872E1,1.11E2,4.3651013E0,4.946463E1,1.4853908E2,9.4364805E0,4.6037457E1,2.7636444E1,6.241738E2,6.5456616E2,1E0,2.7064238E1,2.9502758E1,-3.744648E-2,1E0,5.7E-2,-2.8378395E-3,-3.4624066E-2,-3.3000004E-2,4.172497E4,5.0384717E0,-3.682408E-2,7E0,8.334689E0,9.913332E-3,4.1065574E-2,3.6317449E0,3.6046652E2,5.868303E2,4.8954563E1,2.678242E1,1.5134346E1,4E0,3.643218E1,4.4433963E-2,6E0,-3.570423E-2,1.7559259E0,4E0,7.96198E2,3.9656865E-3,9E0,5.0454546E-2,3.1914675E-4,-3.4024917E-2,-1.5551305E-2,2.6311476E-2,-2.9000003E-2,3.801663E-2,6.5262295E-2,3.6528476E-3,-2.3487233E-2,2.8723383E-3,5.3264465E-2,-1.1864868E-2,3.649606E-2,6.1853934E-2,-6.555558E-3,6.842137E-2,3.5018694E-2,-2.9693881E-2,3.4952153E-2,-1.5748963E-2,-3.3443764E-2,7.0527956E-2,4.210345E-2,-1.1823532E-2,4.4999998E-2,1.5461537E-2,-2.7162164E-2,4.9115024E-3,-2.6688313E-2,-3.583574E-2,-1.6475413E-2,-5.1459875E-3,-3.006438E-2,-5.000002E-3,3.9297517E-2,7.105261E-3,-2.2411767E-2],"split_indices":[4,4,5,6,6,6,6,5,5,6,5,4,6,5,22,6,5,4,6,5,5,4,4,15,5,5,0,12,0,0,0,0,21,6,0,3,6,24,0,6,4,4,5,5,6,7,5,0,8,0,20,9,4,24,0,0,0,0,0,0,0,0,0,0,0,0,0,0,0,0,0,0,0,0,0,0,0,0,0,0,0,0,0,0,0,0,0,0,0,0,0,0,0],"split_type":[0,0,0,0,0,0,0,0,0,0,0,0,0,0,0,0,0,0,0,0,0,0,0,0,0,0,0,0,0,0,0,0,0,0,0,0,0,0,0,0,0,0,0,0,0,0,0,0,0,0,0,0,0,0,0,0,0,0,0,0,0,0,0,0,0,0,0,0,0,0,0,0,0,0,0,0,0,0,0,0,0,0,0,0,0,0,0,0,0,0,0,0,0],"sum_hessian":[6.556444E3,4.5564443E3,1.9999999E3,2.0057777E3,2.5506665E3,1.9426665E3,5.733333E1,1.8355554E3,1.7022221E2,2.3266665E3,2.2399998E2,5.5999996E1,1.8866665E3,4.0444443E1,1.6888887E1,6.755555E1,1.7679999E3,8.844444E1,8.177777E1,3.5999997E2,1.9666665E3,1.7688889E2,4.7111107E1,1.4222221E1,4.1777775E1,1.5955554E2,1.727111E3,3.422222E1,6.222222E0,3.111111E0,1.3777777E1,1.9555553E1,4.7999996E1,2.2666666E2,1.5413333E3,9.777777E0,7.8666664E1,7.599999E1,5.7777777E0,1.3466666E2,2.2533331E2,5.2888885E1,1.9137777E3,2.6666664E1,1.5022221E2,3.1999998E1,1.5111111E1,4.8888884E0,9.333333E0,2.2666666E1,1.911111E1,1.20444435E2,3.9111107E1,2.0444443E1,1.3777777E1,1.2444444E1,3.5555553E1,1.551111E2,7.155555E1,5.7777777E0,3.9999998E0,4.5777775E1,3.2888885E1,2.0444443E1,5.5555553E1,1.4666666E1,1.1999999E2,1.8399998E2,4.1333332E1,8.888888E0,4.3999996E1,1.7364443E3,1.7733333E2,4.444444E0,2.2222221E1,7.911111E1,7.111111E1,1.6888887E1,1.5111111E1,8.444444E0,6.666666E0,6.222222E0,3.111111E0,1.1555555E1,7.5555553E0,1.1466666E2,5.7777777E0,1.4222221E1,2.4888887E1,7.9999995E0,1.2444444E1,5.333333E0,8.444444E0],"tree_param":{"num_deleted":"0","num_feature":"25","num_nodes":"93","size_leaf_vector":"1"}},{"base_weights":[6.3548516E-3,-6.74024E-1,1.272686E0,4.961098E-1,-7.15981E-1,1.3376946E0,-6.9110304E-2,8.5899985E-1,3.0543637E-2,-7.2811115E-1,-3.499322E-1,9.912557E-1,1.3755078E0,-2.4170269E-1,8.3515114E-1,-8.152873E-3,9.335866E-1,-3.7441525E-1,5.449898E-1,-5.504685E-1,-3.6696985E-2,-1.832066E-2,-6.0874534E-1,3.0269527E-1,1.1007863E0,6.957332E-2,1.2570186E0,1.214605E-1,-5.4482067E-1,5.0760247E-2,4.3375668E-1,9.954403E-1,-2.4804652E-3,-5.349579E-1,9.2668995E-2,7.044906E-1,-1.8580403E-2,-3.535812E-2,-4.101394E-1,-4.648053E-1,2.1569121E-1,-4.1460302E-1,-3.4175176E-2,5.611073E-2,-7.869606E-3,1.1326566E0,3.5322644E-3,1.2866617E0,-1.22728115E-2,2.790881E-1,-4.4369903E-1,-3.8369095E-1,-3.5294037E-2,-3.19121E-3,4.2466298E-2,6.3682646E-2,3.7938267E-2,-1.6419807E-3,-3.1110076E-2,3.072599E-2,-1.0352606E-2,4.188771E-2,-0E0,-2.7585825E-2,-6.7711235E-3,-2.8525054E-2,-1.6097159E-3,-7.3689516E-3,3.0224666E-2,-3.3219304E-2,-8.836229E-3,-9.046676E-3,2.629186E-2,6.3875064E-2,4.633185E-2,6.5270625E-2,4.4485133E-2,-0E0,3.4251835E-2,-3.0478934E-2,-2.8984952E-3,-2.8178472E-2,1.1659319E-2],"categories":[],"categories_nodes":[],"categories_segments":[],"categories_sizes":[],"default_left":[0,0,0,0,0,0,0,0,0,0,0,0,0,0,0,0,0,0,0,0,0,0,0,0,0,0,0,0,0,0,0,0,0,0,0,0,0,0,0,0,0,0,0,0,0,0,0,0,0,0,0,0,0,0,0,0,0,0,0,0,0,0,0,0,0,0,0,0,0,0,0,0,0,0,0,0,0,0,0,0,0,0,0],"id":3,"left_children":[1,3,5,7,9,11,13,15,17,19,21,23,25,27,29,-1,31,33,35,37,-1,39,41,43,45,-1,47,49,51,-1,53,55,-1,57,59,61,-1,-1,63,65,67,69,-1,-1,71,73,-1,75,-1,77,79,81,-1,-1,-1,-1,-1,-1,-1,-1,-1,-1,-1,-1,-1,-1,-1,-1,-1,-1,-1,-1,-1,-1,-1,-1,-1,-1,-1,-1,-1,-1,-1],"loss_changes":[5.6634883E3,2.1030151E2,2.0061914E2,2.4976929E1,1.7968506E1,2.7106934E1,1.6848682E1,6.579792E0,1.4015326E1,3.6035156E0,1.1478786E1,1.607988E1,1.7167969E0,1.009902E1,6.642008E-1,0E0,4.880127E0,2.9083047E0,4.6342716E0,2.4886818E0,0E0,6.415568E0,7.0116043E-1,8.169836E0,6.0000916E0,0E0,1.13437805E1,3.8450131E0,9.125824E-1,0E0,1.6363437E0,3.6643066E0,0E0,1.1511383E0,1.7780282E0,2.4570847E0,0E0,0E0,2.659419E0,8.892517E-1,5.78662E0,1.2171588E0,0E0,0E0,2.2626526E0,4.0576324E0,0E0,4.1101074E-1,0E0,3.768786E0,4.9921453E-1,3.2043676E0,0E0,0E0,0E0,0E0,0E0,0E0,0E0,0E0,0E0,0E0,0E0,0E0,0E0,0E0,0E0,0E0,0E0,0E0,0E0,0E0,0E0,0E0,0E0,0E0,0E0,0E0,0E0,0E0,0E0,0E0,0E0],"parents":[2147483647,0,0,1,1,2,2,3,3,4,4,5,5,6,6,7,7,8,8,9,9,10,10,11,11,12,12,13,13,14,14,16,16,17,17,18,18,19,19,21,21,22,22,23,23,24,24,26,26,27,27,28,28,30,30,31,31,33,33,34,34,35,35,38,38,39,39,40,40,41,41,44,44,45,45,47,47,49,49,50,50,51,51],"right_children":[2,4,6,8,10,12,14,16,18,20,22,24,26,28,30,-1,32,34,36,38,-1,40,42,44,46,-1,48,50,52,-1,54,56,-1,58,60,62,-1,-1,64,66,68,70,-1,-1,72,74,-1,76,-1,78,80,82,-1,-1,-1,-1,-1,-1,-1,-1,-1,-1,-1,-1,-1,-1,-1,-1,-1,-1,-1,-1,-1,-1,-1,-1,-1,-1,-1,-1,-1,-1,-1],"split_conditions":[1.2858514E1,3.036606E1,3.38046E1,2.7636444E1,1.1919426E1,1.423939E1,1.5134346E1,-8.660254E-1,1.1724509E1,3.38046E1,3.5405663E1,1E0,2.678242E1,3.643218E1,4.307227E4,-8.152873E-3,1E0,4.252004E-2,1E0,1.0221351E1,-3.6696985E-2,1E0,3.7692757E1,2.678242E1,1E0,6.957332E-2,6E0,1E0,4.2936254E4,5.0760247E-2,-1.8369701E-16,2.4871983E1,-2.4804652E-3,1.7389172E0,5.8018267E-2,2E0,-1.8580403E-2,-3.535812E-2,1E0,5.694306E-2,4E0,6E0,-3.4175176E-2,5.611073E-2,1E0,2.8547237E1,3.5322644E-3,1E0,-1.22728115E-2,1.3861274E1,3.0857876E-2,1.7486339E0,-3.5294037E-2,-3.19121E-3,4.2466298E-2,6.3682646E-2,3.7938267E-2,-1.6419807E-3,-3.1110076E-2,3.072599E-2,-1.0352606E-2,4.188771E-2,-0E0,-2.7585825E-2,-6.7711235E-3,-2.8525054E-2,-1.6097159E-3,-7.3689516E-3,3.0224666E-2,-3.3219304E-2,-8.836229E-3,-9.046676E-3,2.629186E-2,6.3875064E-2,4.633185E-2,6.5270625E-2,4.4485133E-2,-0E0,3.4251835E-2,-3.0478934E-2,-2.8984952E-3,-2.8178472E-2,1.1659319E-2],"split_indices":[6,5,5,5,6,6,6,17,6,5,5,15,5,5,21,0,1,24,1,6,0,15,5,5,1,0,10,1,21,0,19,5,0,20,24,11,0,0,9,24,7,3,0,0,1,5,0,1,0,6,24,20,0,0,0,0,0,0,0,0,0,0,0,0,0,0,0,0,0,0,0,0,0,0,0,0,0,0,0,0,0,0,0],"split_type":[0,0,0,0,0,0,0,0,0,0,0,0,0,0,0,0,0,0,0,0,0,0,0,0,0,0,0,0,0,0,0,0,0,0,0,0,0,0,0,0,0,0,0,0,0,0,0,0,0,0,0,0,0,0,0,0,0,0,0,0,0,0,0,0,0,0,0,0,0,0,0,0,0,0,0,0,0,0,0,0,0,0,0],"sum_hessian":[6.5712725E3,4.274853E3,2.2964192E3,1.4751862E2,4.1273345E3,2.1903755E3,1.0604373E2,8.230518E1,6.521343E1,3.993728E3,1.3360634E2,2.1848769E2,1.9718878E3,8.9755745E1,1.6287989E1,5.426011E0,7.687917E1,3.6533226E1,2.8680208E1,1.3045146E2,3.8632766E3,5.92052E1,7.4401146E1,3.0627232E1,1.8786046E2,1.7276188E3,2.44269E2,4.0956036E1,4.879971E1,1.0016536E1,6.271453E0,7.241287E1,4.466305E0,2.7239466E1,9.29376E0,2.4719225E1,3.9609823E0,5.9387E1,7.106446E1,2.0167519E1,3.903768E1,2.287632E1,5.1524822E1,7.787113E0,2.2840118E1,1.820322E2,5.8282614E0,2.3974905E2,4.5199475E0,3.255836E1,8.397675E0,2.639574E1,2.2403969E1,3.1297898E0,3.141663E0,3.1077341E1,4.133553E1,4.405702E0,2.2833763E1,3.1290474E0,6.1647124E0,2.0688543E1,4.030681E0,4.59906E1,2.5073864E1,1.5765732E1,4.4017873E0,2.0374943E1,1.8662739E1,1.0079278E1,1.2797042E1,1.788798E1,4.9521394E0,1.03546394E2,7.84858E1,2.265093E2,1.3239764E1,1.995728E1,1.2601084E1,5.285228E0,3.1124465E0,2.0628958E1,5.766783E0],"tree_param":{"num_deleted":"0","num_feature":"25","num_nodes":"83","size_leaf_vector":"1"}},{"base_weights":[-2.6989218E-3,-6.350468E-1,1.0730968E0,-7.1280056E-1,-1.8820955E-1,4.8455757E-1,1.2777323E0,-3.6618304E-2,-5.869314E-1,6.329242E-2,-2.3069628E-1,6.8297714E-2,3.623594E-1,9.743608E-1,1.3496066E0,-6.1361724E-1,1.4801922E-1,-3.0182427E-1,4.1348958E-1,2.0269273E-1,1.0495393E0,7.188949E-1,6.788252E-2,1.1465788E0,1.3681453E0,-6.313625E-1,-1.14474714E-1,-1.7665829E-1,5.5265944E-2,-3.9302123E-1,5.3380486E-2,9.7165024E-1,-2.5011417E-1,7.6106645E-2,5.0758827E-1,1.2654604E0,4.1333285E-1,8.0387616E-1,9.444166E-2,9.526043E-1,6.800037E-2,1.0078923E0,6.8635665E-2,-3.3053238E-2,-2.3620712E-2,4.855329E-2,-2.6225809E-2,-2.1199197E-2,1.0577341E-2,-2.0768197E-2,7.6799183E-3,1.16596995E-2,-1.560457E-2,2.7189916E-3,5.3905018E-2,-3.0153243E-2,3.2963313E-2,1.7447667E-3,6.27849E-2,1.3535685E-2,3.4784243E-2,3.851449E-2,6.5224715E-2,-3.3569566E-3,5.5645704E-2,3.356872E-2,6.0111262E-2,-2.1079732E-2,2.3697628E-2,3.585289E-2,6.70749E-2,3.6013406E-2,6.2263675E-2],"categories":[],"categories_nodes":[],"categories_segments":[],"categories_sizes":[],"default_left":[0,0,0,0,0,0,0,0,0,0,0,0,0,0,0,0,0,0,0,0,0,0,0,0,0,0,0,0,0,0,0,0,0,0,0,0,0,0,0,0,0,0,0,0,0,0,0,0,0,0,0,0,0,0,0,0,0,0,0,0,0,0,0,0,0,0,0,0,0,0,0,0,0],"id":4,"left_children":[1,3,5,7,9,11,13,-1,15,-1,17,-1,19,21,23,25,27,29,31,33,35,37,-1,39,41,43,45,47,-1,49,51,53,55,57,59,61,63,65,67,69,-1,71,-1,-1,-1,-1,-1,-1,-1,-1,-1,-1,-1,-1,-1,-1,-1,-1,-1,-1,-1,-1,-1,-1,-1,-1,-1,-1,-1,-1,-1,-1,-1],"loss_changes":[4.452878E3,1.430083E2,2.910393E2,8.084717E0,3.8033295E1,6.68524E1,3.764087E1,0E0,9.513519E0,0E0,2.7427315E1,0E0,6.0230446E1,3.290216E1,3.6381836E0,3.9420624E0,5.703898E0,1.7468296E1,2.2375042E1,1.7244162E1,1.3557587E1,1.1040192E1,0E0,3.770752E0,5.5566406E-1,1.6770325E0,8.148927E0,1.4355036E0,0E0,5.3181E0,7.3249807E0,3.01474E0,9.354001E0,1.5329554E1,5.5698967E0,2.728424E-1,9.55224E0,8.801697E0,5.4083934E0,5.301155E0,0E0,3.1334114E-1,0E0,0E0,0E0,0E0,0E0,0E0,0E0,0E0,0E0,0E0,0E0,0E0,0E0,0E0,0E0,0E0,0E0,0E0,0E0,0E0,0E0,0E0,0E0,0E0,0E0,0E0,0E0,0E0,0E0,0E0,0E0],"parents":[2147483647,0,0,1,1,2,2,3,3,4,4,5,5,6,6,8,8,10,10,12,12,13,13,14,14,15,15,16,16,17,17,18,18,19,19,20,20,21,21,23,23,24,24,25,25,26,26,27,27,29,29,30,30,31,31,32,32,33,33,34,34,35,35,36,36,37,37,38,38,39,39,41,41],"right_children":[2,4,6,8,10,12,14,-1,16,-1,18,-1,20,22,24,26,28,30,32,34,36,38,-1,40,42,44,46,48,-1,50,52,54,56,58,60,62,64,66,68,70,-1,72,-1,-1,-1,-1,-1,-1,-1,-1,-1,-1,-1,-1,-1,-1,-1,-1,-1,-1,-1,-1,-1,-1,-1,-1,-1,-1,-1,-1,-1,-1,-1],"split_conditions":[4.6644665E1,4.2694397E1,5.04845E1,3.955526E1,6E0,6E0,5.2608177E1,-3.6618304E-2,1E0,6.329242E-2,3E0,6.8297714E-2,3E0,1E0,-7.6669794E-1,4E0,1E0,2E0,1E0,2E0,1E0,1E0,6.788252E-2,2E0,-8.660254E-1,2E0,1E0,2.6485931E-2,5.5265944E-2,9.1632985E-2,1E0,2E0,1E0,2.3E1,4.81674E1,3E0,1E0,2E0,-1.8369701E-16,5.574043E1,6.800037E-2,5.5936855E1,6.8635665E-2,-3.3053238E-2,-2.3620712E-2,4.855329E-2,-2.6225809E-2,-2.1199197E-2,1.0577341E-2,-2.0768197E-2,7.6799183E-3,1.16596995E-2,-1.560457E-2,2.7189916E-3,5.3905018E-2,-3.0153243E-2,3.2963313E-2,1.7447667E-3,6.27849E-2,1.3535685E-2,3.4784243E-2,3.851449E-2,6.5224715E-2,-3.3569566E-3,5.5645704E-2,3.356872E-2,6.0111262E-2,-2.1079732E-2,2.3697628E-2,3.585289E-2,6.70749E-2,3.6013406E-2,6.2263675E-2],"split_indices":[5,5,5,5,0,0,5,0,14,0,11,0,11,14,17,11,1,9,15,9,15,13,0,11,16,9,15,24,0,24,15,10,1,0,5,10,1,11,19,5,0,5,0,0,0,0,0,0,0,0,0,0,0,0,0,0,0,0,0,0,0,0,0,0,0,0,0,0,0,0,0,0,0],"split_type":[0,0,0,0,0,0,0,0,0,0,0,0,0,0,0,0,0,0,0,0,0,0,0,0,0,0,0,0,0,0,0,0,0,0,0,0,0,0,0,0,0,0,0,0,0,0,0,0,0,0,0,0,0,0,0,0,0,0,0,0,0,0,0,0,0,0,0,0,0,0,0,0,0],"sum_hessian":[6.543746E3,4.121594E3,2.4221519E3,3.5100027E3,6.1159155E2,6.258991E2,1.7962527E3,3.0329395E3,4.7706314E2,1.6478735E1,5.9511285E2,7.487081E1,5.510283E2,3.47108E2,1.4491448E3,4.6063867E2,1.6424484E1,5.3655554E2,5.8557262E1,4.483049E2,1.0272342E2,2.1016656E2,1.3694144E2,1.2696144E2,1.3221832E3,4.4437524E2,1.6263433E1,1.27957E1,3.628785E0,4.2708008E2,1.09475494E2,3.1635208E1,2.6922052E1,3.1789804E2,1.3040686E2,7.583848E1,2.688494E1,1.845974E2,2.5569166E1,6.961959E1,5.7341854E1,1.960481E1,1.3025785E3,3.7121854E2,7.3156685E1,4.0169363E0,1.2246496E1,7.917126E0,4.8785734E0,4.1071542E2,1.6364655E1,7.380079E1,3.5674706E1,3.5443277E0,2.8090881E1,1.9716461E1,7.2055902E0,3.0824332E2,9.65472E0,5.9034348E1,7.137251E1,7.2436543E0,6.8594826E1,1.6389635E1,1.0495305E1,1.4072488E2,4.3872513E1,1.06769285E1,1.4892238E1,4.5289474E1,2.4330114E1,1.0878865E1,8.7259445E0],"tree_param":{"num_deleted":"0","num_feature":"25","num_nodes":"73","size_leaf_vector":"1"}},{"base_weights":[-8.686098E-4,-6.875117E-1,4.629912E-1,-7.293553E-1,-3.7032312E-1,1.1541055E0,-5.8225214E-1,-3.6765095E-2,-3.1944606E-2,-2.1137711E-1,-3.6366865E-2,1.2074095E0,1.6123086E-1,8.652113E-2,-6.8891674E-1,-4.2928272E-1,2.950833E-1,6.555169E-1,1.3162228E0,7.7513427E-1,-2.473241E-1,5.092983E-1,-3.1445166E-1,-3.489505E-1,-7.1427464E-1,-5.954393E-1,-2.4070974E-1,-1.1438642E-1,5.05522E-1,2.8116715E-1,9.782519E-1,1.3416392E0,8.755218E-1,9.5213693E-1,9.3053296E-2,-8.145621E-2,-3.2626625E-2,9.130127E-1,6.7232214E-2,-1.2312223E-1,-3.4460317E-2,-1.8552418E-1,-3.3986647E-2,-5.6956935E-1,-3.646014E-2,-3.1738214E-2,-8.919264E-3,-1.4328174E-2,1.3215572E-2,-1.6598051E-2,1.6888306E-2,-2.7932484E-2,3.0749654E-2,-1.3742181E-2,2.2798382E-2,-1.4022981E-3,5.080483E-2,4.4238526E-2,6.75092E-2,5.5537958E-2,2.4096241E-2,5.4778125E-2,1.3969353E-2,3.3984467E-2,-1.2843999E-2,-8.5750595E-3,2.9879516E-2,6.311183E-2,3.2050386E-2,-1.2277871E-3,4.6524834E-2,-1.0189181E-2,3.8420554E-2,-1.3393781E-2,3.0738859E-2,-3.0532321E-2,3.8477038E-3],"categories":[],"categories_nodes":[],"categories_segments":[],"categories_sizes":[],"default_left":[0,0,0,0,0,0,0,0,0,0,0,0,0,0,0,0,0,0,0,0,0,0,0,0,0,0,0,0,0,0,0,0,0,0,0,0,0,0,0,0,0,0,0,0,0,0,0,0,0,0,0,0,0,0,0,0,0,0,0,0,0,0,0,0,0,0,0,0,0,0,0,0,0,0,0,0,0],"id":5,"left_children":[1,3,5,7,9,11,13,-1,-1,15,-1,17,19,21,23,25,27,29,31,33,35,37,39,41,43,45,47,49,51,53,55,57,59,61,63,65,-1,67,69,71,-1,73,-1,75,-1,-1,-1,-1,-1,-1,-1,-1,-1,-1,-1,-1,-1,-1,-1,-1,-1,-1,-1,-1,-1,-1,-1,-1,-1,-1,-1,-1,-1,-1,-1,-1,-1],"loss_changes":[2.100028E3,3.490271E1,2.8432515E3,6.5563965E-1,1.74646E1,1.25052E2,1.1188721E2,0E0,0E0,2.4152367E1,0E0,1.3394946E2,3.0833416E1,3.6843906E1,1.1295715E1,4.556692E0,5.7760835E0,4.459059E1,1.9625E1,5.7313766E0,4.839457E0,1.871912E1,7.8285933E0,4.9792128E0,2.1689453E0,1.120779E0,1.779387E0,2.3769336E0,5.4610395E0,1.7050682E1,7.7225494E0,5.5007324E0,9.066933E0,3.2941132E0,2.5438468E0,3.3460574E0,0E0,4.233696E0,4.2092023E0,5.5085163E0,0E0,4.470542E0,0E0,3.3587952E0,0E0,0E0,0E0,0E0,0E0,0E0,0E0,0E0,0E0,0E0,0E0,0E0,0E0,0E0,0E0,0E0,0E0,0E0,0E0,0E0,0E0,0E0,0E0,0E0,0E0,0E0,0E0,0E0,0E0,0E0,0E0,0E0,0E0],"parents":[2147483647,0,0,1,1,2,2,3,3,4,4,5,5,6,6,9,9,11,11,12,12,13,13,14,14,15,15,16,16,17,17,18,18,19,19,20,20,21,21,22,22,23,23,24,24,25,25,26,26,27,27,28,28,29,29,30,30,31,31,32,32,33,33,34,34,35,35,37,37,38,38,39,39,41,41,43,43],"right_children":[2,4,6,8,10,12,14,-1,-1,16,-1,18,20,22,24,26,28,30,32,34,36,38,40,42,44,46,48,50,52,54,56,58,60,62,64,66,-1,68,70,72,-1,74,-1,76,-1,-1,-1,-1,-1,-1,-1,-1,-1,-1,-1,-1,-1,-1,-1,-1,-1,-1,-1,-1,-1,-1,-1,-1,-1,-1,-1,-1,-1,-1,-1,-1,-1],"split_conditions":[1.2817447E4,1.1356781E4,6.9044885E2,1.050497E4,5.0060153E2,1.34554825E1,1.3330837E1,-3.6765095E-2,-3.1944606E-2,3.1133557E2,-3.6366865E-2,1.4779791E4,6.241738E2,7.59599E2,7.423306E2,5.9614925E0,1.19218955E4,3.082927E2,6.4732513E2,1.5251563E1,1.5485421E1,1.2151117E1,8.5797955E2,1.5867827E1,1.4482616E1,1E0,8.885436E0,7.2626557E0,4.017309E0,5.0960145E0,3.567818E0,1.9912685E2,1.1919426E1,2.2645496E4,-5E-1,1E0,-3.2626625E-2,1.0678168E1,1E0,3E0,-3.4460317E-2,1E0,-3.3986647E-2,1E0,-3.646014E-2,-3.1738214E-2,-8.919264E-3,-1.4328174E-2,1.3215572E-2,-1.6598051E-2,1.6888306E-2,-2.7932484E-2,3.0749654E-2,-1.3742181E-2,2.2798382E-2,-1.4022981E-3,5.080483E-2,4.4238526E-2,6.75092E-2,5.5537958E-2,2.4096241E-2,5.4778125E-2,1.3969353E-2,3.3984467E-2,-1.2843999E-2,-8.5750595E-3,2.9879516E-2,6.311183E-2,3.2050386E-2,-1.2277871E-3,4.6524834E-2,-1.0189181E-2,3.8420554E-2,-1.3393781E-2,3.0738859E-2,-3.0532321E-2,3.8477038E-3],"split_indices":[23,23,4,23,4,6,6,0,0,4,0,23,4,4,4,6,23,4,4,6,6,6,4,6,6,13,6,6,6,6,6,4,6,23,17,1,0,6,1,11,0,1,0,1,0,0,0,0,0,0,0,0,0,0,0,0,0,0,0,0,0,0,0,0,0,0,0,0,0,0,0,0,0,0,0,0,0],"split_type":[0,0,0,0,0,0,0,0,0,0,0,0,0,0,0,0,0,0,0,0,0,0,0,0,0,0,0,0,0,0,0,0,0,0,0,0,0,0,0,0,0,0,0,0,0,0,0,0,0,0,0,0,0,0,0,0,0,0,0,0,0,0,0,0,0,0,0,0,0,0,0,0,0,0,0,0,0],"sum_hessian":[6.591298E3,2.6573726E3,3.9339255E3,2.346241E3,3.1113156E2,2.3681184E3,1.5658071E3,2.1937966E3,1.5244427E2,2.1658022E2,9.4551346E1,2.2471594E3,1.2095897E2,2.1528014E2,1.350527E3,1.516726E2,6.49076E1,3.7139832E2,1.8757611E3,4.8072186E1,7.288679E1,1.0478076E2,1.10499374E2,9.504112E1,1.2554858E3,7.919974E1,7.247287E1,2.2027649E1,4.287995E1,1.7295908E2,1.9843924E2,1.7713326E3,1.0442858E2,3.7736797E1,1.0335386E1,5.274427E1,2.0142515E1,5.4090958E1,5.0689804E1,7.4208115E1,3.629126E1,6.485971E1,3.0181408E1,1.2169454E2,1.1337914E3,7.167915E1,7.5205817E0,6.701846E1,5.4544067E0,1.5200293E1,6.8273563E0,3.5316849E0,3.9348267E1,4.109582E1,1.3186325E2,7.1059866E0,1.9133325E2,3.4655075E1,1.7366775E3,6.406394E1,4.0364635E1,3.0464794E1,7.2720027E0,3.6163254E0,6.719061E0,4.735894E1,5.3853297E0,2.1928762E1,3.2162197E1,4.6591595E1,4.0982094E0,6.886147E1,5.3466454E0,5.952481E1,5.334901E0,1.14622154E2,7.0723915E0],"tree_param":{"num_deleted":"0","num_feature":"25","num_nodes":"77","size_leaf_vector":"1"}},{"base_weights":[-2.0085867E-3,-6.8672276E-1,1.1907897E0,4.767167E-1,-7.0525414E-1,1.2462713E0,3.0695336E-2,-1.6144565E-1,8.144315E-1,-7.1480393E-1,-2.0161405E-1,9.199037E-1,6.472055E-2,-3.149506E-1,6.3486254E-1,2.9271174E-2,-3.134289E-1,9.889974E-1,5.331597E-1,-7.193607E-1,-4.2687646E-1,5.879409E-1,-4.6407434E-1,1.0997773E0,5.647416E-1,3.6694135E-3,-6.2562495E-1,7.400673E-1,-1.6852966E-2,-4.7013664E-1,1.2552625E-2,1.6357059E-2,5.6698162E-2,6.673337E-1,-3.8266536E-3,-3.9729807E-1,-3.6075648E-2,1.8968189E-1,-6.4741296E-1,-6.356288E-4,8.262369E-1,-5.747684E-1,1.6230322E-1,1.1301641E0,4.79227E-1,-1.1648817E-1,9.4736147E-1,-3.0269235E-1,3.9174664E-1,-3.380303E-2,-2.194092E-3,-3.5269172E-3,8.2116586E-1,-7.27573E-3,-3.227299E-2,-1.53174875E-2,1.7428372E-2,1.3700165E-2,4.8214998E-2,-3.1188164E-2,-4.2237313E-3,-2.889866E-2,2.4411142E-2,-3.5250682E-2,-1.4912938E-2,6.020026E-3,5.0388303E-2,-3.186373E-2,-1.1883914E-2,3.4423437E-2,-2.752386E-2,2.204254E-2,5.769744E-2,-9.380984E-3,4.534955E-2,-2.6267761E-2,4.2106383E-3,5.7325598E-2,3.589846E-2,-2.77275E-2,1.995105E-2,2.8998008E-2,-1.44517375E-2,2.841715E-2,5.6453336E-2],"categories":[],"categories_nodes":[],"categories_segments":[],"categories_sizes":[],"default_left":[0,0,0,0,0,0,0,0,0,0,0,0,0,0,0,0,0,0,0,0,0,0,0,0,0,0,0,0,0,0,0,0,0,0,0,0,0,0,0,0,0,0,0,0,0,0,0,0,0,0,0,0,0,0,0,0,0,0,0,0,0,0,0,0,0,0,0,0,0,0,0,0,0,0,0,0,0,0,0,0,0,0,0,0,0],"id":6,"left_children":[1,3,5,7,9,11,13,15,17,19,21,23,-1,25,27,-1,29,31,33,35,37,39,41,43,45,47,49,51,-1,53,55,-1,-1,57,-1,59,-1,61,63,-1,65,67,69,71,73,75,77,79,81,-1,-1,-1,83,-1,-1,-1,-1,-1,-1,-1,-1,-1,-1,-1,-1,-1,-1,-1,-1,-1,-1,-1,-1,-1,-1,-1,-1,-1,-1,-1,-1,-1,-1,-1,-1],"loss_changes":[5.311668E3,8.944324E1,1.5249146E2,1.42686205E1,1.9328003E1,3.414917E1,2.3069578E1,2.8042562E0,1.4301262E0,4.8148193E0,1.6274994E1,1.8037048E1,0E0,7.0061235E0,4.4037457E0,0E0,1.0807886E0,1.893362E0,1.6516027E0,2.3237305E0,9.004686E0,2.9010186E0,4.2013865E0,2.9624329E0,2.6599167E1,4.3429046E0,9.4493866E-1,2.5462894E0,0E0,6.1458516E-1,8.9402515E-1,0E0,0E0,1.4436417E0,0E0,1.9028969E0,0E0,4.346651E0,6.58968E-1,0E0,1.5834856E0,8.187866E-1,3.9379838E0,2.355011E0,3.3693004E0,3.1436112E0,1.9632301E0,3.8128436E0,2.2752502E0,0E0,0E0,0E0,1.8012447E0,0E0,0E0,0E0,0E0,0E0,0E0,0E0,0E0,0E0,0E0,0E0,0E0,0E0,0E0,0E0,0E0,0E0,0E0,0E0,0E0,0E0,0E0,0E0,0E0,0E0,0E0,0E0,0E0,0E0,0E0,0E0,0E0],"parents":[2147483647,0,0,1,1,2,2,3,3,4,4,5,5,6,6,7,7,8,8,9,9,10,10,11,11,13,13,14,14,16,16,17,17,18,18,19,19,20,20,21,21,22,22,23,23,24,24,25,25,26,26,27,27,29,29,30,30,33,33,35,35,37,37,38,38,40,40,41,41,42,42,43,43,44,44,45,45,46,46,47,47,48,48,52,52],"right_children":[2,4,6,8,10,12,14,16,18,20,22,24,-1,26,28,-1,30,32,34,36,38,40,42,44,46,48,50,52,-1,54,56,-1,-1,58,-1,60,-1,62,64,-1,66,68,70,72,74,76,78,80,82,-1,-1,-1,84,-1,-1,-1,-1,-1,-1,-1,-1,-1,-1,-1,-1,-1,-1,-1,-1,-1,-1,-1,-1,-1,-1,-1,-1,-1,-1,-1,-1,-1,-1,-1,-1],"split_conditions":[6.7059064E2,2.8241112E1,3.38046E1,6.088448E2,6.3854443E2,7.7579663E2,7.59599E2,2.4871983E1,2.640011E1,2.2977045E4,3.1817343E1,2.9812696E1,6.472055E-2,3.7033268E1,3.955526E1,2.9271174E-2,7.0710677E-1,3E0,4.3454723E4,3.008118E1,3.4405186E1,2.9502758E1,2.3366469E4,1E0,2.0800154E4,2.2064492E4,2.4954758E4,2.0870957E4,-1.6852966E-2,-1.8369701E-16,4E0,1.6357059E-2,5.6698162E-2,2.073642E4,-3.8266536E-3,5.740272E2,-3.6075648E-2,4E0,2.4954758E4,-6.356288E-4,6.4732513E2,7.0710677E-1,3.5405663E1,-8.660254E-1,8.660254E-1,1E0,3.1817343E1,1E0,7E0,-3.380303E-2,-2.194092E-3,-3.5269172E-3,1E0,-7.27573E-3,-3.227299E-2,-1.53174875E-2,1.7428372E-2,1.3700165E-2,4.8214998E-2,-3.1188164E-2,-4.2237313E-3,-2.889866E-2,2.4411142E-2,-3.5250682E-2,-1.4912938E-2,6.020026E-3,5.0388303E-2,-3.186373E-2,-1.1883914E-2,3.4423437E-2,-2.752386E-2,2.204254E-2,5.769744E-2,-9.380984E-3,4.534955E-2,-2.6267761E-2,4.2106383E-3,5.7325598E-2,3.589846E-2,-2.77275E-2,1.995105E-2,2.8998008E-2,-1.44517375E-2,2.841715E-2,5.6453336E-2],"split_indices":[4,5,5,4,4,4,4,5,5,23,5,5,0,5,5,0,16,10,21,5,5,5,23,1,23,23,23,23,0,19,8,0,0,23,0,4,0,3,23,0,4,16,5,17,18,15,5,12,8,0,0,0,12,0,0,0,0,0,0,0,0,0,0,0,0,0,0,0,0,0,0,0,0,0,0,0,0,0,0,0,0,0,0,0,0],"split_type":[0,0,0,0,0,0,0,0,0,0,0,0,0,0,0,0,0,0,0,0,0,0,0,0,0,0,0,0,0,0,0,0,0,0,0,0,0,0,0,0,0,0,0,0,0,0,0,0,0,0,0,0,0,0,0,0,0,0,0,0,0,0,0,0,0,0,0,0,0,0,0,0,0,0,0,0,0,0,0,0,0,0,0,0,0],"sum_hessian":[6.501672E3,4.1308857E3,2.3707864E3,6.429342E1,4.0665923E3,2.2624253E3,1.0836103E2,2.2327719E1,4.1965702E1,3.990312E3,7.628021E1,2.9366672E2,1.9687585E3,6.912665E1,3.9234383E1,3.1818342E0,1.9145884E1,2.4122719E1,1.7842983E1,3.9263281E3,6.398401E1,1.86262E1,5.765401E1,1.9336029E2,1.0030643E2,3.4455868E1,3.467078E1,3.571039E1,3.5239964E0,1.283859E1,6.307295E0,5.0433397E0,1.907938E1,1.4681521E1,3.1614623E0,2.7604027E1,3.898724E3,1.6774279E1,4.720973E1,5.4402957E0,1.31859045E1,4.9201168E1,8.452842E0,1.833974E2,9.962878E0,3.6231968E1,6.407446E1,1.923412E1,1.5221748E1,3.1597345E1,3.0734339E0,3.14748E0,3.256291E1,5.344064E0,7.4945254E0,3.128654E0,3.1786406E0,7.2880054E0,7.393516E0,1.5250175E1,1.2353851E1,4.3410187E0,1.2433261E1,3.9403618E1,7.8061094E0,3.1503978E0,1.0035506E1,4.0503487E1,8.697681E0,4.9633574E0,3.4894838E0,6.9088554E0,1.7648856E2,4.0214343E0,5.941444E0,1.1560868E1,2.4671097E1,3.1924637E1,3.2149822E1,1.4413192E1,4.8209276E0,1.2156003E1,3.065746E0,1.9621767E1,1.294114E1],"tree_param":{"num_deleted":"0","num_feature":"25","num_nodes":"85","size_leaf_vector":"1"}},{"base_weights":[-5.640236E-3,1.120762E0,-6.1795014E-1,1.2766955E0,-2.4388914E-1,7.891634E-2,-6.8699783E-1,3.317121E-1,1.2938843E0,2.7505395E-1,-4.961085E-1,1.0574535E0,-4.7208768E-1,-7.0040333E-1,-1.5931726E-1,6.1775815E-2,5.8218274E-2,6.540436E-2,1.0082558E0,-5.3028077E-1,6.079236E-1,-6.400511E-1,-1.9986531E-1,1.2316965E0,5.8056766E-1,-5.491348E-1,4.5740214E-1,-5.5275786E-1,-7.200503E-1,6.0957134E-2,-5.526172E-1,7.798155E-1,-1.9322357E-1,1.0742227E0,-2.2476963E-3,-4.700482E-3,-3.1768635E-2,8.323081E-1,2.566863E-1,-4.0197888E-1,-3.4837984E-2,-0E0,-5.9079516E-1,1.2563134E0,1.7162098E-2,1.6751E-1,9.2881984E-1,-2.5460446E-1,-6.723973E-1,5.821107E-2,4.038239E-2,2.1235201E-1,-6.58104E-1,-6.3635504E-1,-3.615508E-2,-7.777193E-2,-6.810277E-1,1.801379E-2,5.386954E-2,1.0527321E-4,-3.1061238E-2,2.9232293E-2,5.7646453E-2,-3.8853285E-3,4.667171E-2,3.6870574E-3,4.109339E-2,-2.8809136E-2,4.9933693E-3,1.4998706E-2,-1.3155289E-2,-3.5312567E-3,-3.4399744E-2,2.8129617E-2,6.3966095E-2,2.0579038E-2,-1.2173413E-2,2.4119442E-2,5.1776826E-2,-3.1378247E-2,7.029582E-3,-3.4911107E-2,-2.1484276E-2,1.6827455E-2,-1.5641747E-2,-1.7264945E-2,2.0692965E-2,-2.0310512E-2,-3.4942463E-2,-3.410714E-4,-3.5599895E-2,-1.9586306E-2,3.7728604E-2,-1.7726384E-2,-3.5522602E-2],"categories":[],"categories_nodes":[],"categories_segments":[],"categories_sizes":[],"default_left":[0,0,0,0,0,0,0,0,0,0,0,0,0,0,0,0,0,0,0,0,0,0,0,0,0,0,0,0,0,0,0,0,0,0,0,0,0,0,0,0,0,0,0,0,0,0,0,0,0,0,0,0,0,0,0,0,0,0,0,0,0,0,0,0,0,0,0,0,0,0,0,0,0,0,0,0,0,0,0,0,0,0,0,0,0,0,0,0,0,0,0,0,0,0,0],"id":7,"left_children":[1,3,5,7,9,11,13,15,17,19,21,23,25,27,29,-1,31,-1,33,35,37,39,41,43,45,47,49,51,53,-1,55,57,59,61,-1,-1,-1,63,65,67,-1,69,71,73,-1,75,77,79,81,-1,83,85,87,89,-1,91,93,-1,-1,-1,-1,-1,-1,-1,-1,-1,-1,-1,-1,-1,-1,-1,-1,-1,-1,-1,-1,-1,-1,-1,-1,-1,-1,-1,-1,-1,-1,-1,-1,-1,-1,-1,-1,-1,-1],"loss_changes":[4.5133257E3,4.9079297E2,2.0410388E2,3.3004883E1,3.1191067E1,2.070382E2,2.70896E1,9.2903595E0,6.6884766E0,2.125531E1,6.6122894E0,1.05980835E1,1.7850609E1,1.0385864E1,5.3222042E1,0E0,5.76377E0,0E0,7.1616745E0,9.34432E-1,4.0738964E0,1.0549126E0,4.211296E0,1.6017761E0,5.3538504E0,7.990898E0,5.5060053E0,3.6184647E1,2.5061035E-1,0E0,4.5205345E0,4.9330425E-1,2.019573E0,2.8160934E0,0E0,0E0,0E0,3.2335148E0,2.2656918E0,2.1413708E0,0E0,2.980141E0,7.9812336E-1,6.455841E-1,0E0,2.0449395E0,3.416462E-1,1.0297016E1,5.865936E-1,0E0,1.4917225E0,6.296007E0,3.6386566E0,5.9291077E0,0E0,4.839036E0,2.1540451E-1,0E0,0E0,0E0,0E0,0E0,0E0,0E0,0E0,0E0,0E0,0E0,0E0,0E0,0E0,0E0,0E0,0E0,0E0,0E0,0E0,0E0,0E0,0E0,0E0,0E0,0E0,0E0,0E0,0E0,0E0,0E0,0E0,0E0,0E0,0E0,0E0,0E0,0E0],"parents":[2147483647,0,0,1,1,2,2,3,3,4,4,5,5,6,6,7,7,8,8,9,9,10,10,11,11,12,12,13,13,14,14,16,16,18,18,19,19,20,20,21,21,22,22,23,23,24,24,25,25,26,26,27,27,28,28,30,30,31,31,32,32,33,33,37,37,38,38,39,39,41,41,42,42,43,43,45,45,46,46,47,47,48,48,50,50,51,51,52,52,53,53,55,55,56,56],"right_children":[2,4,6,8,10,12,14,16,18,20,22,24,26,28,30,-1,32,-1,34,36,38,40,42,44,46,48,50,52,54,-1,56,58,60,62,-1,-1,-1,64,66,68,-1,70,72,74,-1,76,78,80,82,-1,84,86,88,90,-1,92,94,-1,-1,-1,-1,-1,-1,-1,-1,-1,-1,-1,-1,-1,-1,-1,-1,-1,-1,-1,-1,-1,-1,-1,-1,-1,-1,-1,-1,-1,-1,-1,-1,-1,-1,-1,-1,-1,-1],"split_conditions":[2.8584283E2,1.3765995E4,6.374065E0,4.2569355E1,1.4863613E4,1.324347E4,4.9870247E1,1.0798209E4,1.2431194E4,4.374637E1,4.7740646E1,1.2173266E4,5.2608177E1,4.018588E2,1.3765995E4,6.1775815E-2,5.2279043E0,6.540436E-2,8.334689E0,5.500773E0,6.8761067E0,6.2319155E0,1.6709814E4,4.326517E2,4.6644665E1,1.4944054E4,1.46938955E4,1.346615E4,7.459859E0,6.0957134E-2,1.5530313E4,4.780852E0,7.5193925E0,4.5221363E1,-2.2476963E-3,-4.700482E-3,-3.1768635E-2,1.2270311E2,1E0,1.7691824E0,-3.4837984E-2,2.3151492E2,5.3758364E0,3.990326E1,1.7162098E-2,-2.5881904E-1,1.03E2,4.5067352E1,5.001326E1,5.821107E-2,1.6127602E4,4.1601E1,1.4779791E4,1.4072687E4,-3.615508E-2,1.19E2,1E0,1.801379E-2,5.386954E-2,1.0527321E-4,-3.1061238E-2,2.9232293E-2,5.7646453E-2,-3.8853285E-3,4.667171E-2,3.6870574E-3,4.109339E-2,-2.8809136E-2,4.9933693E-3,1.4998706E-2,-1.3155289E-2,-3.5312567E-3,-3.4399744E-2,2.8129617E-2,6.3966095E-2,2.0579038E-2,-1.2173413E-2,2.4119442E-2,5.1776826E-2,-3.1378247E-2,7.029582E-3,-3.4911107E-2,-2.1484276E-2,1.6827455E-2,-1.5641747E-2,-1.7264945E-2,2.0692965E-2,-2.0310512E-2,-3.4942463E-2,-3.410714E-4,-3.5599895E-2,-1.9586306E-2,3.7728604E-2,-1.7726384E-2,-3.5522602E-2],"split_indices":[4,23,6,5,23,23,5,23,23,5,5,23,5,4,23,0,6,0,6,6,6,6,23,4,5,23,23,23,6,0,23,6,6,5,0,0,0,4,1,20,0,4,6,5,0,17,22,5,5,0,23,5,23,23,0,22,7,0,0,0,0,0,0,0,0,0,0,0,0,0,0,0,0,0,0,0,0,0,0,0,0,0,0,0,0,0,0,0,0,0,0,0,0,0,0],"split_type":[0,0,0,0,0,0,0,0,0,0,0,0,0,0,0,0,0,0,0,0,0,0,0,0,0,0,0,0,0,0,0,0,0,0,0,0,0,0,0,0,0,0,0,0,0,0,0,0,0,0,0,0,0,0,0,0,0,0,0,0,0,0,0,0,0,0,0,0,0,0,0,0,0,0,0,0,0,0,0,0,0,0,0,0,0,0,0,0,0,0,0,0,0,0,0],"sum_hessian":[6.5418975E3,2.3034636E3,4.2384336E3,2.0673706E3,2.3609294E2,3.8195422E2,3.8564795E3,3.7399048E1,2.0299716E3,7.705818E1,1.5903476E2,1.3732997E2,2.4462424E2,3.7604304E3,9.6049065E1,7.7859526E0,2.9613094E1,1.9300684E3,9.990322E1,2.2274488E1,5.4783695E1,1.0602149E2,5.3013268E1,9.926747E1,3.80625E1,2.2637628E2,1.8247948E1,4.4564673E2,3.3147837E3,2.0798672E1,7.52504E1,7.2120404E0,2.2401054E1,9.4085266E1,5.8179564E0,4.8765244E0,1.7397964E1,3.2418865E1,2.2364828E1,2.229118E1,8.3730316E1,3.5766254E1,1.7247013E1,9.6078766E1,3.1887043E0,1.8220062E1,1.984244E1,6.793219E1,1.5844409E2,6.017368E0,1.223058E1,5.3696156E1,3.9195056E2,1.251212E2,3.1896626E3,1.6525532E1,5.872486E1,4.049526E0,3.1625142E0,1.5904209E1,6.4968457E0,1.4373933E1,7.9711334E1,3.1665332E0,2.9252333E1,1.7883482E1,4.481346E0,1.6585175E1,5.7060056E0,1.6619858E1,1.9146395E1,3.1492128E0,1.40978E1,4.040897E0,9.203787E1,1.1583022E1,6.6370397E0,5.0739164E0,1.4768522E1,3.4776985E1,3.315521E1,1.4113806E2,1.7306032E1,6.832199E0,5.398381E0,1.3931715E1,3.9764442E1,5.644187E1,3.355087E2,1.3680241E1,1.1144096E2,1.2471053E1,4.054479E0,6.214499E0,5.2510365E1],"tree_param":{"num_deleted":"0","num_feature":"25","num_nodes":"95","size_leaf_vector":"1"}},{"base_weights":[5.2133165E-3,-6.6888773E-1,4.491168E-1,-7.167367E-1,-3.0589056E-1,1.0582901E0,-5.9528995E-1,-3.614564E-2,-6.362816E-1,-3.567595E-2,-1.3911264E-1,-4.241586E-2,1.1323682E0,-6.600059E-1,4.3877497E-1,-4.5351493E-1,-3.282052E-2,4.295142E-1,-5.2689594E-1,3.703821E-1,-3.1210583E-1,6.4399105E-1,1.2207633E0,-7.1351737E-1,-4.6970204E-1,7.444554E-1,-2.6157036E-1,-3.0076414E-2,-9.902394E-2,2.3103218E-1,8.719583E-1,-2.906118E-1,-6.3605684E-1,-3.364032E-1,6.6670215E-1,-4.4207358E-1,2.506809E-2,8.944212E-1,-2.014427E-1,8.853981E-1,1.2643793E0,-5.6517535E-1,-3.5936553E-2,2.2916283E-2,-5.3677166E-1,3.4876585E-1,6.008902E-2,-3.5938403E-1,1.377358E-2,7.4347868E-3,-1.625058E-2,-3.0497765E-2,1.6042545E-2,5.964714E-2,2.1350605E-2,-2.6828585E-2,-4.526055E-3,-3.3268195E-2,-8.360527E-3,1.3039711E-2,-2.7313113E-2,4.6226885E-2,1.8327001E-2,-0E0,-2.5485098E-2,1.4446462E-2,-1.9980205E-2,5.8671076E-2,3.1228015E-2,-1.616702E-2,1.4738749E-2,5.446561E-2,8.505706E-3,5.283708E-2,6.429774E-2,6.321519E-3,-3.2625657E-2,2.9153649E-2,-1.5974201E-2,-2.795877E-2,2.3160623E-2,3.624195E-2,-1.030165E-2,-2.4276933E-2,-4.55273E-3],"categories":[],"categories_nodes":[],"categories_segments":[],"categories_sizes":[],"default_left":[0,0,0,0,0,0,0,0,0,0,0,0,0,0,0,0,0,0,0,0,0,0,0,0,0,0,0,0,0,0,0,0,0,0,0,0,0,0,0,0,0,0,0,0,0,0,0,0,0,0,0,0,0,0,0,0,0,0,0,0,0,0,0,0,0,0,0,0,0,0,0,0,0,0,0,0,0,0,0,0,0,0,0,0,0],"id":8,"left_children":[1,3,5,7,9,11,13,-1,15,-1,17,19,21,23,25,27,-1,29,31,33,35,37,39,41,43,45,47,-1,49,51,53,55,57,59,61,63,65,67,69,71,73,75,-1,77,79,81,-1,83,-1,-1,-1,-1,-1,-1,-1,-1,-1,-1,-1,-1,-1,-1,-1,-1,-1,-1,-1,-1,-1,-1,-1,-1,-1,-1,-1,-1,-1,-1,-1,-1,-1,-1,-1,-1,-1],"loss_changes":[1.9579174E3,4.4800903E1,2.5107515E3,5.440674E-1,2.051959E1,2.0337158E2,9.761426E1,0E0,2.2798157E-1,0E0,4.8204094E1,1.770316E1,9.983984E1,1.3486206E1,1.8685629E1,9.668474E-1,0E0,7.473135E0,3.0727272E0,1.3401127E1,4.2716837E0,7.650827E1,2.7569336E1,2.8985596E-1,1.0100044E1,1.0343231E1,1.5160612E0,0E0,4.8869836E-1,4.903873E0,3.175661E0,2.0135908E0,1.0107117E0,2.5652611E0,2.987938E0,2.0584335E0,3.1878593E0,2.002948E1,5.1207814E0,3.3384216E1,6.229248E0,2.643568E0,0E0,7.3440523E0,6.2633896E0,7.2682843E0,0E0,6.8605304E-1,0E0,0E0,0E0,0E0,0E0,0E0,0E0,0E0,0E0,0E0,0E0,0E0,0E0,0E0,0E0,0E0,0E0,0E0,0E0,0E0,0E0,0E0,0E0,0E0,0E0,0E0,0E0,0E0,0E0,0E0,0E0,0E0,0E0,0E0,0E0,0E0,0E0],"parents":[2147483647,0,0,1,1,2,2,3,3,4,4,5,5,6,6,8,8,10,10,11,11,12,12,13,13,14,14,15,15,17,17,18,18,19,19,20,20,21,21,22,22,23,23,24,24,25,25,26,26,28,28,29,29,30,30,31,31,32,32,33,33,34,34,35,35,36,36,37,37,38,38,39,39,40,40,41,41,43,43,44,44,45,45,47,47],"right_children":[2,4,6,8,10,12,14,-1,16,-1,18,20,22,24,26,28,-1,30,32,34,36,38,40,42,44,46,48,-1,50,52,54,56,58,60,62,64,66,68,70,72,74,76,-1,78,80,82,-1,84,-1,-1,-1,-1,-1,-1,-1,-1,-1,-1,-1,-1,-1,-1,-1,-1,-1,-1,-1,-1,-1,-1,-1,-1,-1,-1,-1,-1,-1,-1,-1,-1,-1,-1,-1,-1,-1],"split_conditions":[1.2927261E4,1.1503611E4,1.3330837E1,1.050497E4,2.0520071E1,2.9502758E1,3.3205006E1,-3.614564E-2,1E2,-3.567595E-2,4.617895E1,1.1919426E1,1.4779791E4,2.678242E1,1.4995521E1,1E0,-3.282052E-2,7.6434984E0,4.9101715E1,2.5439451E1,2.7912634E1,4.929902E1,3.38046E1,1.3980793E1,1E0,3.643218E1,4.537352E4,-3.0076414E-2,4.4260773E1,3.8264682E0,4.2694397E1,5.5573363E0,1.27E2,4E0,1.9520705E4,1E0,2.1283873E4,4.3316345E1,1.436101E4,2.2164582E4,1.5530313E4,2E0,-3.5936553E-2,1.423939E1,6E0,2.2977045E4,6.008902E-2,3.590133E1,1.377358E-2,7.4347868E-3,-1.625058E-2,-3.0497765E-2,1.6042545E-2,5.964714E-2,2.1350605E-2,-2.6828585E-2,-4.526055E-3,-3.3268195E-2,-8.360527E-3,1.3039711E-2,-2.7313113E-2,4.6226885E-2,1.8327001E-2,-0E0,-2.5485098E-2,1.4446462E-2,-1.9980205E-2,5.8671076E-2,3.1228015E-2,-1.616702E-2,1.4738749E-2,5.446561E-2,8.505706E-3,5.283708E-2,6.429774E-2,6.321519E-3,-3.2625657E-2,2.9153649E-2,-1.5974201E-2,-2.795877E-2,2.3160623E-2,3.624195E-2,-1.030165E-2,-2.4276933E-2,-4.55273E-3],"split_indices":[23,23,6,23,5,5,5,0,22,0,5,6,23,5,6,9,0,6,5,5,5,5,5,6,15,5,21,0,5,6,5,6,22,10,23,15,23,5,23,23,23,10,0,6,10,23,0,5,0,0,0,0,0,0,0,0,0,0,0,0,0,0,0,0,0,0,0,0,0,0,0,0,0,0,0,0,0,0,0,0,0,0,0,0,0],"split_type":[0,0,0,0,0,0,0,0,0,0,0,0,0,0,0,0,0,0,0,0,0,0,0,0,0,0,0,0,0,0,0,0,0,0,0,0,0,0,0,0,0,0,0,0,0,0,0,0,0,0,0,0,0,0,0,0,0,0,0,0,0,0,0,0,0,0,0,0,0,0,0,0,0,0,0,0,0,0,0,0,0,0,0,0,0],"sum_hessian":[6.541128E3,2.596863E3,3.944265E3,2.2933164E3,3.0354648E2,2.4912632E3,1.4530018E3,2.1212524E3,1.720639E2,8.700828E1,2.165382E2,1.5703275E2,2.3342305E3,1.3678544E3,8.514747E1,1.9897297E1,1.5216661E2,8.7648766E1,1.2888943E2,6.1758553E1,9.527419E1,3.5918344E2,1.9750469E3,1.065088E3,3.0276636E2,5.933101E1,2.581646E1,1.3345905E1,6.551391E0,6.1712505E1,2.5936262E1,4.21759E1,8.671353E1,1.8103994E1,4.3654556E1,6.875661E1,2.651759E1,2.771483E2,8.203514E1,2.3001791E2,1.745029E3,4.052857E1,1.0245594E3,3.618192E1,2.6658444E2,3.287124E1,2.645977E1,2.2276215E1,3.5402455E0,3.0774815E0,3.4739099E0,5.2887506E0,5.6423756E1,1.395981E1,1.1976452E1,1.7940844E1,2.4235054E1,8.101682E1,5.696706E0,4.5205665E0,1.3583428E1,2.2184803E1,2.1469753E1,9.359625E0,5.939698E1,1.669785E1,9.819739E0,1.3443823E2,1.4271007E2,6.629857E1,1.5736572E1,1.7847525E2,5.154267E1,1.6939838E2,1.5756306E3,4.3656344E0,3.6162933E1,1.3570365E1,2.2611553E1,2.6127173E2,5.312726E0,1.9515985E1,1.3355252E1,1.43482485E1,7.9279666E0],"tree_param":{"num_deleted":"0","num_feature":"25","num_nodes":"85","size_leaf_vector":"1"}},{"base_weights":[2.0807236E-3,-6.6553575E-1,1.0915923E0,-7.0097405E-1,-2.5558347E-1,5.222117E-1,1.1949933E0,-3.5484623E-2,-6.254502E-1,-4.965408E-1,-8.590963E-2,-2.0973401E-1,7.1300715E-1,1.2039965E0,5.315639E-1,-3.4787893E-2,-5.3164136E-1,-3.359976E-1,-6.4466035E-1,3.8509034E-2,-3.3178598E-2,7.234303E-3,-2.9707078E-2,7.703783E-1,-3.2861274E-1,1.0961956E0,6.1228313E-2,8.402402E-1,-3.135058E-1,-3.4445387E-1,-5.598691E-1,-7.590858E-2,-4.8621807E-1,-3.4287725E-2,-3.2733106E-3,2.5066242E-1,-4.4418105E-1,-3.300543E-1,1.6656639E-1,8.613357E-1,2.3489483E-1,8.522786E-3,-5.122005E-1,1.7843953E-1,1.1172256E0,1.1642943E-2,9.794835E-1,9.593715E-4,-2.8965661E-2,-3.734758E-3,-2.918887E-2,-3.152808E-2,-2.3598863E-2,5.2425484E-3,-1.7974531E-2,-3.3163235E-2,-1.7769782E-2,2.043866E-3,2.709351E-2,-1.0907285E-2,-2.8463185E-2,-2.5006209E-2,2.8798033E-3,1.7447513E-2,-1.2470809E-2,5.1339623E-2,2.7518218E-2,-1.0878412E-2,3.0338874E-2,-3.2013144E-2,-8.4880935E-3,-8.338869E-3,2.3594454E-2,5.6812286E-2,1.6674107E-2,5.463758E-2,2.4041053E-2],"categories":[],"categories_nodes":[],"categories_segments":[],"categories_sizes":[],"default_left":[0,0,0,0,0,0,0,0,0,0,0,0,0,0,0,0,0,0,0,0,0,0,0,0,0,0,0,0,0,0,0,0,0,0,0,0,0,0,0,0,0,0,0,0,0,0,0,0,0,0,0,0,0,0,0,0,0,0,0,0,0,0,0,0,0,0,0,0,0,0,0,0,0,0,0,0,0],"id":9,"left_children":[1,3,5,7,9,11,13,-1,15,17,19,21,23,25,27,-1,29,31,33,35,-1,37,-1,39,41,43,-1,45,47,49,51,53,55,-1,-1,57,59,61,63,65,67,-1,69,71,73,-1,75,-1,-1,-1,-1,-1,-1,-1,-1,-1,-1,-1,-1,-1,-1,-1,-1,-1,-1,-1,-1,-1,-1,-1,-1,-1,-1,-1,-1,-1,-1],"loss_changes":[4.7142817E3,5.810742E1,1.4418628E2,1.8577881E0,1.3045219E1,5.3323364E1,1.1628906E1,0E0,2.094986E0,2.8340034E0,1.3753432E1,6.678583E0,1.8349289E1,2.980957E0,8.097565E0,0E0,6.304321E-1,2.4837146E0,1.4855747E0,1.6194357E1,0E0,2.8075657E0,0E0,1.365213E1,1.6222275E0,6.22348E0,0E0,1.5289192E0,8.296472E-1,1.5512192E0,5.129547E-1,1.3741436E0,6.207962E-1,0E0,0E0,6.640564E0,1.1606073E0,1.1717141E0,2.8175778E0,1.1859192E1,7.433619E0,0E0,3.52808E-1,1.0109901E0,4.4171143E0,0E0,3.1248283E-1,0E0,0E0,0E0,0E0,0E0,0E0,0E0,0E0,0E0,0E0,0E0,0E0,0E0,0E0,0E0,0E0,0E0,0E0,0E0,0E0,0E0,0E0,0E0,0E0,0E0,0E0,0E0,0E0,0E0,0E0],"parents":[2147483647,0,0,1,1,2,2,3,3,4,4,5,5,6,6,8,8,9,9,10,10,11,11,12,12,13,13,14,14,16,16,17,17,18,18,19,19,21,21,23,23,24,24,25,25,27,27,28,28,29,29,30,30,31,31,32,32,35,35,36,36,37,37,38,38,39,39,40,40,42,42,43,43,44,44,46,46],"right_children":[2,4,6,8,10,12,14,-1,16,18,20,22,24,26,28,-1,30,32,34,36,-1,38,-1,40,42,44,-1,46,48,50,52,54,56,-1,-1,58,60,62,64,66,68,-1,70,72,74,-1,76,-1,-1,-1,-1,-1,-1,-1,-1,-1,-1,-1,-1,-1,-1,-1,-1,-1,-1,-1,-1,-1,-1,-1,-1,-1,-1,-1,-1,-1,-1],"split_conditions":[1.2481408E1,1.1066193E1,1.423939E1,9.65742E0,1E0,1E0,1E0,-3.5484623E-2,1E0,5E0,1E0,4E0,1E0,1.5867827E1,4E0,-3.4787893E-2,1E0,3E0,1.7869872E0,2E0,-3.3178598E-2,1.3118295E1,-2.9707078E-2,2E0,1.7389172E0,-8.660254E-1,6.1228313E-2,1.4743031E1,1E0,2E0,1E0,-5E-1,1.1608317E1,-3.4287725E-2,-3.2733106E-3,1.203383E1,3.9656865E-3,1.5E1,1E0,2E0,1.8E1,8.522786E-3,1.9E1,2.9232161E-2,6E0,1.1642943E-2,1E0,9.593715E-4,-2.8965661E-2,-3.734758E-3,-2.918887E-2,-3.152808E-2,-2.3598863E-2,5.2425484E-3,-1.7974531E-2,-3.3163235E-2,-1.7769782E-2,2.043866E-3,2.709351E-2,-1.0907285E-2,-2.8463185E-2,-2.5006209E-2,2.8798033E-3,1.7447513E-2,-1.2470809E-2,5.1339623E-2,2.7518218E-2,-1.0878412E-2,3.0338874E-2,-3.2013144E-2,-8.4880935E-3,-8.338869E-3,2.3594454E-2,5.6812286E-2,1.6674107E-2,5.463758E-2,2.4041053E-2],"split_indices":[6,6,6,6,15,15,1,0,15,10,1,10,1,6,10,0,7,7,20,11,0,6,0,11,20,17,0,6,15,9,9,17,6,0,0,6,24,0,9,9,0,0,0,24,10,0,9,0,0,0,0,0,0,0,0,0,0,0,0,0,0,0,0,0,0,0,0,0,0,0,0,0,0,0,0,0,0],"split_type":[0,0,0,0,0,0,0,0,0,0,0,0,0,0,0,0,0,0,0,0,0,0,0,0,0,0,0,0,0,0,0,0,0,0,0,0,0,0,0,0,0,0,0,0,0,0,0,0,0,0,0,0,0,0,0,0,0,0,0,0,0,0,0,0,0,0,0,0,0,0,0,0,0,0,0,0,0],"sum_hessian":[6.47916E3,4.0176038E3,2.4615566E3,3.697058E3,3.205457E2,3.7939938E2,2.0821572E3,3.305725E3,3.9133286E2,1.3141075E2,1.8913493E2,7.831963E1,3.0107974E2,2.0533264E3,2.8830866E1,2.1940833E2,1.7192455E2,6.495315E1,6.64576E1,1.5624306E2,3.2891876E1,5.052386E1,2.779577E1,2.8570013E2,1.5379601E1,3.3849533E2,1.714831E3,2.1208239E1,7.622628E0,2.4723083E1,1.4720146E2,2.4575157E1,4.0377987E1,6.1721775E1,4.7358274E0,1.0901592E2,4.722713E1,1.566457E1,3.485929E1,2.435375E2,4.2162636E1,4.0088086E0,1.1370792E1,7.9017305E0,3.305936E2,4.5875893E0,1.662065E1,3.630357E0,3.992271E0,1.2435779E1,1.2287305E1,7.753061E1,6.967085E1,1.5178059E1,9.397098E0,1.5103516E1,2.5274473E1,6.4229195E1,4.4786724E1,1.8086576E1,2.9140556E1,1.0865488E1,4.799082E0,2.4513224E1,1.0346067E1,1.5724799E2,8.628952E1,1.9086493E1,2.3076143E1,7.4303217E0,3.9404707E0,3.6723886E0,4.229342E0,3.2219708E2,8.3965225E0,1.2409913E1,4.2107368E0],"tree_param":{"num_deleted":"0","num_feature":"25","num_nodes":"77","size_leaf_vector":"1"}},{"base_weights":[-1.3222662E-3,1.054047E0,-6.0620344E-1,1.1831414E0,-3.6162367E-1,9.109814E-2,-6.788316E-1,4.3450406E-1,1.2157197E0,2.270329E-2,-5.606641E-1,9.604354E-1,-4.6626016E-1,-6.9826835E-1,-2.8453E-1,1.1213338E0,1.7589692E-2,6.138738E-2,8.1062233E-1,-3.2026216E-2,3.3980772E-1,-6.167095E-1,-4.537015E-3,1.1701978E0,4.592204E-1,-5.4267E-1,2.8765884E-1,-4.3364018E-1,-7.0270944E-1,1.0136153E0,-5.369569E-1,6.0696244E-2,6.1671156E-1,5.5306245E-2,-9.56025E-2,1.1449696E-1,9.040552E-1,7.6027733E-1,-1.3769288E-1,-3.4340635E-2,-4.2158982E-1,-2.9276842E-2,3.06985E-1,5.552083E-1,1.2120391E0,1.7403578E-2,9.42469E-1,-2.65816E-1,-6.802275E-1,6.1208606E-1,-2.9766285E-1,4.7626173E-1,-5.898339E-1,-3.54687E-2,-6.364629E-1,5.872723E-1,5.8651526E-2,-1.2876853E-1,-6.43657E-1,4.891066E-2,4.036853E-3,6.2423414E-3,-2.1220729E-2,2.6375143E-2,-1.7526848E-2,4.718749E-2,1.5853457E-2,1.551823E-2,4.5759663E-2,-1.9153057E-2,2.0647718E-2,-3.7271976E-3,-3.0393085E-2,-1.7077256E-2,4.0147778E-2,4.794732E-2,-4.4864E-3,6.1825342E-2,3.5380423E-2,1.5738927E-2,-9.200203E-3,1.9964939E-2,5.1302474E-2,-2.8359218E-2,1.7352287E-3,-3.4923214E-2,-2.0018822E-2,4.796603E-2,1.4179746E-2,-2.793265E-2,-0E0,-1.7259665E-3,4.737377E-2,-3.379252E-2,-5.952046E-3,8.340015E-4,-3.4314454E-2,5.2143544E-2,-7.543567E-3,1.5981713E-2,-1.3592504E-2,-2.4738302E-2,-3.466257E-2],"categories":[],"categories_nodes":[],"categories_segments":[],"categories_sizes":[],"default_left":[0,0,0,0,0,0,0,0,0,0,0,0,0,0,0,0,0,0,0,0,0,0,0,0,0,0,0,0,0,0,0,0,0,0,0,0,0,0,0,0,0,0,0,0,0,0,0,0,0,0,0,0,0,0,0,0,0,0,0,0,0,0,0,0,0,0,0,0,0,0,0,0,0,0,0,0,0,0,0,0,0,0,0,0,0,0,0,0,0,0,0,0,0,0,0,0,0,0,0,0,0,0,0],"id":10,"left_children":[1,3,5,7,9,11,13,15,17,19,21,23,25,27,29,31,33,-1,35,-1,37,39,41,43,45,47,49,51,53,55,57,-1,59,-1,61,63,65,67,69,-1,71,-1,73,75,77,79,81,83,85,87,89,91,93,-1,95,97,-1,99,101,-1,-1,-1,-1,-1,-1,-1,-1,-1,-1,-1,-1,-1,-1,-1,-1,-1,-1,-1,-1,-1,-1,-1,-1,-1,-1,-1,-1,-1,-1,-1,-1,-1,-1,-1,-1,-1,-1,-1,-1,-1,-1,-1,-1],"loss_changes":[4.1251533E3,4.3076416E2,2.0815381E2,5.1934814E1,1.5170382E1,1.8861328E2,2.8217041E1,2.6115969E1,8.872803E0,1.4521697E1,3.9959564E0,1.5287643E1,1.384441E1,3.7475586E0,5.840354E1,6.8117905E-1,7.3716974E0,0E0,3.8785477E0,0E0,9.576323E0,1.2162628E0,2.578429E0,1.8886414E0,9.848183E0,7.943527E0,4.459421E0,9.031562E0,9.523926E-1,1.1094913E0,6.3147545E0,0E0,1.278364E0,0E0,3.9617038E0,1.8739175E0,8.5824203E-1,1.3488054E0,3.219492E0,0E0,2.0977073E0,0E0,3.2380624E0,2.458233E0,1.4808655E-1,1.5981467E0,4.535408E-1,6.731362E0,3.4178925E-1,1.2943459E0,6.5754867E-1,2.4029822E0,1.9872818E0,0E0,1.0804611E1,3.6362007E0,0E0,2.151338E0,4.0519333E-1,0E0,0E0,0E0,0E0,0E0,0E0,0E0,0E0,0E0,0E0,0E0,0E0,0E0,0E0,0E0,0E0,0E0,0E0,0E0,0E0,0E0,0E0,0E0,0E0,0E0,0E0,0E0,0E0,0E0,0E0,0E0,0E0,0E0,0E0,0E0,0E0,0E0,0E0,0E0,0E0,0E0,0E0,0E0,0E0],"parents":[2147483647,0,0,1,1,2,2,3,3,4,4,5,5,6,6,7,7,8,8,9,9,10,10,11,11,12,12,13,13,14,14,15,15,16,16,18,18,20,20,21,21,22,22,23,23,24,24,25,25,26,26,27,27,28,28,29,29,30,30,32,32,34,34,35,35,36,36,37,37,38,38,40,40,42,42,43,43,44,44,45,45,46,46,47,47,48,48,49,49,50,50,51,51,52,52,54,54,55,55,57,57,58,58],"right_children":[2,4,6,8,10,12,14,16,18,20,22,24,26,28,30,32,34,-1,36,-1,38,40,42,44,46,48,50,52,54,56,58,-1,60,-1,62,64,66,68,70,-1,72,-1,74,76,78,80,82,84,86,88,90,92,94,-1,96,98,-1,100,102,-1,-1,-1,-1,-1,-1,-1,-1,-1,-1,-1,-1,-1,-1,-1,-1,-1,-1,-1,-1,-1,-1,-1,-1,-1,-1,-1,-1,-1,-1,-1,-1,-1,-1,-1,-1,-1,-1,-1,-1,-1,-1,-1,-1],"split_conditions":[2.8584283E2,1.4270328E4,6.4275126E0,4.4441784E1,1.5377506E4,1.3366185E4,4.7740646E1,1.1503611E4,1.3139816E4,4.359725E1,5.224551E1,1.2173266E4,5.15924E1,3.082927E2,1.3652411E4,8E0,3.8264682E0,6.138738E-2,4.631734E1,-3.2026216E-2,6.609059E0,4.7740646E1,4E0,4.1601E1,4.709954E1,1.5118373E4,1.6127602E4,1.346615E4,4.301396E1,4.946463E1,1.5530313E4,6.0696244E-2,1.7733621E2,5.5306245E-2,7.1983924E0,6.0415554E0,8.88461E-2,4.6780243E1,5.001326E1,-3.4340635E-2,1.7486339E0,-2.9276842E-2,1.3E1,3.4805203E2,1.19218955E4,3.2990265E2,3E0,4.5067352E1,5.001326E1,1.436101E4,5E0,1E0,2E0,-3.54687E-2,1.3366185E4,4.8656254E1,5.8651526E-2,5E0,1.6946477E4,4.891066E-2,4.036853E-3,6.2423414E-3,-2.1220729E-2,2.6375143E-2,-1.7526848E-2,4.718749E-2,1.5853457E-2,1.551823E-2,4.5759663E-2,-1.9153057E-2,2.0647718E-2,-3.7271976E-3,-3.0393085E-2,-1.7077256E-2,4.0147778E-2,4.794732E-2,-4.4864E-3,6.1825342E-2,3.5380423E-2,1.5738927E-2,-9.200203E-3,1.9964939E-2,5.1302474E-2,-2.8359218E-2,1.7352287E-3,-3.4923214E-2,-2.0018822E-2,4.796603E-2,1.4179746E-2,-2.793265E-2,-0E0,-1.7259665E-3,4.737377E-2,-3.379252E-2,-5.952046E-3,8.340015E-4,-3.4314454E-2,5.2143544E-2,-7.543567E-3,1.5981713E-2,-1.3592504E-2,-2.4738302E-2,-3.466257E-2],"split_indices":[4,23,6,5,23,23,5,23,23,5,5,23,5,4,23,8,6,0,5,0,6,5,3,5,5,23,23,23,5,5,23,0,4,0,6,6,24,5,5,0,20,0,0,4,23,4,3,5,5,23,8,9,9,0,23,5,0,10,23,0,0,0,0,0,0,0,0,0,0,0,0,0,0,0,0,0,0,0,0,0,0,0,0,0,0,0,0,0,0,0,0,0,0,0,0,0,0,0,0,0,0,0,0],"split_type":[0,0,0,0,0,0,0,0,0,0,0,0,0,0,0,0,0,0,0,0,0,0,0,0,0,0,0,0,0,0,0,0,0,0,0,0,0,0,0,0,0,0,0,0,0,0,0,0,0,0,0,0,0,0,0,0,0,0,0,0,0,0,0,0,0,0,0,0,0,0,0,0,0,0,0,0,0,0,0,0,0,0,0,0,0,0,0,0,0,0,0,0,0,0,0,0,0,0,0,0,0,0,0],"sum_hessian":[6.460049E3,2.353267E3,4.1067817E3,2.1568223E3,1.9644478E2,3.872425E2,3.7195393E3,9.066985E1,2.0661523E3,6.7156296E1,1.2928848E2,1.5106918E2,2.3617331E2,3.543825E3,1.7571431E2,3.3519676E1,5.715018E1,2.0043625E3,6.1789925E1,2.1290886E1,4.586541E1,1.171896E2,1.20988865E1,1.0541707E2,4.565212E1,2.1481465E2,2.135867E1,6.0491898E1,3.483333E3,2.8050177E1,1.4766414E2,2.6967705E1,6.5519714E0,4.6400056E0,5.2510174E1,7.7019496E0,5.4087975E1,2.4185638E1,2.167977E1,8.398333E1,3.320627E1,4.0279737E0,8.070912E0,7.776479E0,9.7640594E1,2.44977E1,2.1154419E1,7.251907E1,1.4229558E2,1.3822416E1,7.5362535E0,8.468646E0,5.202325E1,3.154738E3,3.2859503E2,9.079364E0,1.8970814E1,3.125192E1,1.1641222E2,3.3086686E0,3.243303E0,3.1624186E1,2.0885988E1,4.1219077E0,3.580042E0,4.9933125E1,4.154851E0,7.1293273E0,1.705631E1,1.5333233E1,6.3465366E0,1.2274501E1,2.0931767E1,3.5450923E0,4.5258203E0,4.578469E0,3.1980095E0,9.1550354E1,6.0902348E0,9.865325E0,1.4632374E1,3.7510526E0,1.7403366E1,3.5931564E1,3.658751E1,1.3185025E2,1.0445328E1,5.6379566E0,8.18446E0,3.530339E0,4.005914E0,4.406578E0,4.0620685E0,4.343878E1,8.584469E0,2.3195574E1,3.0539944E2,5.4426723E0,3.636692E0,7.09236E0,2.4159561E1,3.2333633E1,8.407858E1],"tree_param":{"num_deleted":"0","num_feature":"25","num_nodes":"103","size_leaf_vector":"1"}},{"base_weights":[1.8706786E-3,-6.619662E-1,4.2617014E-1,-7.038465E-1,-3.6123538E-1,1.0249104E0,-5.8276707E-1,-3.551497E-2,-6.126976E-1,-1.9853061E-1,-3.5142638E-2,3.5967387E-2,1.0653119E0,-6.4030844E-1,5.406815E-1,-5.339023E-1,-3.418646E-2,3.2393312E-1,-5.148172E-1,8.086595E-1,-2.3824166E-1,5.699469E-1,1.1340306E0,-3.334401E-1,-6.918002E-1,7.811862E-1,-4.362256E-2,-2.0851175E-1,-3.4834035E-2,4.961656E-2,6.6820616E-1,-5.6061655E-1,3.0966917E-2,1.0104809E0,4.1174442E-1,-5.7467E-1,-6.358528E-2,1.034066E0,1.2555173E-1,1.1714175E0,6.295208E-1,-5.3848344E-1,1.1277169E-2,-3.5511807E-2,-6.013276E-1,1.0185847E0,4.2438623E-1,4.3239698E-1,-3.0079347E-1,2.3629779E-2,-2.477473E-2,3.838492E-2,-4.279008E-3,4.1299496E-2,-3.9890287E-3,-1.9166965E-2,-3.372251E-2,2.14975E-2,5.6839626E-2,-3.4859276E-4,4.3373697E-2,-6.1213262E-3,-3.424356E-2,1.2076039E-2,-1.4662986E-2,5.5765133E-2,3.4818426E-2,-1.0955676E-2,2.1453211E-2,4.657038E-2,5.9932183E-2,8.960179E-3,5.2611884E-2,-3.4633785E-2,-1.8605657E-2,3.6854427E-2,-1.6445642E-2,-1.91623E-2,-3.4017008E-2,2.4053747E-2,5.4217346E-2,1.0276221E-2,5.4740723E-2,-3.5358772E-3,3.991167E-2,-2.7738485E-2,3.2903235E-3],"categories":[],"categories_nodes":[],"categories_segments":[],"categories_sizes":[],"default_left":[0,0,0,0,0,0,0,0,0,0,0,0,0,0,0,0,0,0,0,0,0,0,0,0,0,0,0,0,0,0,0,0,0,0,0,0,0,0,0,0,0,0,0,0,0,0,0,0,0,0,0,0,0,0,0,0,0,0,0,0,0,0,0,0,0,0,0,0,0,0,0,0,0,0,0,0,0,0,0,0,0,0,0,0,0,0,0],"id":11,"left_children":[1,3,5,7,9,11,13,-1,15,17,-1,19,21,23,25,27,-1,29,31,33,35,37,39,41,43,45,47,49,-1,51,53,55,-1,57,59,61,63,65,67,69,71,73,75,-1,77,79,81,83,85,-1,-1,-1,-1,-1,-1,-1,-1,-1,-1,-1,-1,-1,-1,-1,-1,-1,-1,-1,-1,-1,-1,-1,-1,-1,-1,-1,-1,-1,-1,-1,-1,-1,-1,-1,-1,-1,-1],"loss_changes":[1.8194211E3,3.1361572E1,2.3812915E3,7.3217773E-1,1.7013763E1,9.8684326E1,9.5271515E1,0E0,3.772545E-1,3.5174744E1,0E0,2.1060669E1,8.007764E1,2.1745178E1,1.0225208E1,3.917923E0,0E0,7.4822044E0,7.218521E0,1.5284405E0,4.199137E0,5.9915665E1,3.8423096E1,1.4405691E1,1.4354248E0,3.7582798E0,2.7879398E0,5.6667714E0,0E0,4.5952134E0,4.3166122E0,2.216053E0,0E0,5.581722E-1,2.1215708E0,1.0656824E0,3.5437448E0,2.9495087E0,1.5833627E1,1.135083E1,2.7526917E1,2.9059143E0,1.9172663E1,0E0,3.2476044E0,3.7685394E-1,2.9213076E0,1.5882218E0,1.4719584E0,0E0,0E0,0E0,0E0,0E0,0E0,0E0,0E0,0E0,0E0,0E0,0E0,0E0,0E0,0E0,0E0,0E0,0E0,0E0,0E0,0E0,0E0,0E0,0E0,0E0,0E0,0E0,0E0,0E0,0E0,0E0,0E0,0E0,0E0,0E0,0E0,0E0,0E0],"parents":[2147483647,0,0,1,1,2,2,3,3,4,4,5,5,6,6,8,8,9,9,11,11,12,12,13,13,14,14,15,15,17,17,18,18,19,19,20,20,21,21,22,22,23,23,24,24,25,25,26,26,27,27,29,29,30,30,31,31,33,33,34,34,35,35,36,36,37,37,38,38,39,39,40,40,41,41,42,42,44,44,45,45,46,46,47,47,48,48],"right_children":[2,4,6,8,10,12,14,-1,16,18,-1,20,22,24,26,28,-1,30,32,34,36,38,40,42,44,46,48,50,-1,52,54,56,-1,58,60,62,64,66,68,70,72,74,76,-1,78,80,82,84,86,-1,-1,-1,-1,-1,-1,-1,-1,-1,-1,-1,-1,-1,-1,-1,-1,-1,-1,-1,-1,-1,-1,-1,-1,-1,-1,-1,-1,-1,-1,-1,-1,-1,-1,-1,-1,-1,-1],"split_conditions":[1.2927261E4,1.1356781E4,6.9745557E2,1.050497E4,5.0060153E2,2.8241112E1,3.409249E1,-3.551497E-2,4.6037457E1,4.617895E1,-3.5142638E-2,6.088448E2,1.4430438E4,7.7579663E2,1E0,4.499055E2,-3.418646E-2,3.0489246E2,4.0581696E2,5.796708E2,2.4195467E1,4.4921185E1,6.4732513E2,2.9502758E1,2.678242E1,7.59599E2,4.209961E4,4.1961437E1,-3.4834035E-2,4.0042816E1,8.660254E-1,4.9870247E1,3.0966917E-2,1E1,2.7064238E1,4E0,6.4732513E2,4.3316345E1,2.896256E2,1.5292391E4,3.38046E1,2.5169699E1,2.0668986E4,-3.5511807E-2,2.0800154E4,3.5405663E1,4.5032118E-2,3.643218E1,1E0,2.3629779E-2,-2.477473E-2,3.838492E-2,-4.279008E-3,4.1299496E-2,-3.9890287E-3,-1.9166965E-2,-3.372251E-2,2.14975E-2,5.6839626E-2,-3.4859276E-4,4.3373697E-2,-6.1213262E-3,-3.424356E-2,1.2076039E-2,-1.4662986E-2,5.5765133E-2,3.4818426E-2,-1.0955676E-2,2.1453211E-2,4.657038E-2,5.9932183E-2,8.960179E-3,5.2611884E-2,-3.4633785E-2,-1.8605657E-2,3.6854427E-2,-1.6445642E-2,-1.91623E-2,-3.4017008E-2,2.4053747E-2,5.4217346E-2,1.0276221E-2,5.4740723E-2,-3.5358772E-3,3.991167E-2,-2.7738485E-2,3.2903235E-3],"split_indices":[23,23,4,23,4,5,5,0,5,5,0,4,23,4,12,4,0,4,4,4,5,5,4,5,5,4,21,5,0,5,19,5,0,0,5,10,4,5,4,23,5,5,23,0,23,5,24,5,9,0,0,0,0,0,0,0,0,0,0,0,0,0,0,0,0,0,0,0,0,0,0,0,0,0,0,0,0,0,0,0,0,0,0,0,0,0,0],"split_type":[0,0,0,0,0,0,0,0,0,0,0,0,0,0,0,0,0,0,0,0,0,0,0,0,0,0,0,0,0,0,0,0,0,0,0,0,0,0,0,0,0,0,0,0,0,0,0,0,0,0,0,0,0,0,0,0,0,0,0,0,0,0,0,0,0,0,0,0,0,0,0,0,0,0,0,0,0,0,0,0,0,0,0,0,0,0,0],"sum_hessian":[6.4575894E3,2.517712E3,3.9398772E3,2.208482E3,3.0923E2,2.4726182E3,1.467259E3,2.055101E3,1.5338077E2,2.107353E2,9.84947E1,9.722093E1,2.3753972E3,1.3962635E3,7.099551E1,7.742141E1,7.595936E1,7.933839E1,1.3139693E2,2.5049555E1,7.217138E1,2.9068875E2,2.0847085E3,2.0197815E2,1.1942854E3,5.0176575E1,2.0818932E1,2.678135E1,5.064006E1,4.4953804E1,3.4384583E1,1.2686763E2,4.5292916E0,1.5414097E1,9.635458E0,2.3685266E1,4.848611E1,1.4142982E2,1.4925894E2,1.939464E3,1.4524452E2,1.2647611E2,7.550204E1,9.8550885E2,2.0877652E2,2.8847622E1,2.1328953E1,6.9269824E0,1.3891949E1,7.644097E0,1.913725E1,6.498587E0,3.845522E1,2.8419128E1,5.965455E0,5.166065E1,7.5206985E1,3.6829178E0,1.1731178E1,5.420485E0,4.2149734E0,5.23211E0,1.8453157E1,2.061439E1,2.7871721E1,1.1190993E2,2.9519896E1,6.986718E1,7.939176E1,2.0155539E2,1.7379086E3,7.1130356E1,7.411416E1,6.3686684E1,6.278943E1,2.3816236E1,5.1685802E1,5.7416893E1,1.5135962E2,4.2168665E0,2.4630756E1,1.7177168E1,4.1517854E0,3.140869E0,3.7861135E0,8.064469E0,5.827479E0],"tree_param":{"num_deleted":"0","num_feature":"25","num_nodes":"87","size_leaf_vector":"1"}},{"base_weights":[1.8138097E-3,-6.690178E-1,1.0567122E0,3.4595102E-1,-6.8508536E-1,1.1135194E0,-3.2724384E-2,-2.0998935E-1,5.9960926E-1,-4.5417055E-1,-6.972242E-1,8.042449E-1,1.1512808E0,-3.4606075E-1,5.15906E-1,-2.5649235E-2,-0E0,7.8679204E-1,2.3717579E-1,-5.3651637E-1,2.0612755E-1,-3.488643E-2,-3.3652073E-1,1.0261236E0,5.2788734E-1,5.7624336E-2,6.619247E-1,-1.18664086E-1,-5.535703E-1,6.731633E-1,-2.0067011E-1,-2.514299E-1,2.800691E-2,7.628016E-4,9.964757E-1,5.409811E-1,-1.1442866E-2,-6.63543E-1,-2.2958319E-1,6.0540515E-1,-2.8571692E-1,-2.6244188E-2,-1.1680317E-3,4.6338263E-1,1.0526836E0,6.523163E-2,8.0797225E-1,1.2430951E-2,4.4848144E-2,-2.95097E-1,3.3655766E-1,-3.139928E-2,-2.4728526E-1,-0E0,8.086742E-1,4.7835913E-3,-2.7076354E-2,6.3528954E-3,-2.3144351E-2,5.7612993E-2,2.0545071E-2,5.1015675E-2,4.966689E-4,-3.4230668E-2,-2.2152236E-2,1.1507991E-2,-1.7700836E-2,1.2688632E-2,5.2351344E-2,-3.0453453E-2,9.100478E-3,3.7385456E-4,3.94705E-2,5.360065E-2,1.9693619E-2,-4.8272135E-3,2.823951E-2,-7.6867393E-3,4.30607E-2,-2.4105601E-2,3.5884094E-3,3.3191726E-2,-9.613601E-3,-2.2995504E-2,7.553216E-3,-1.5918298E-2,1.60913E-2,4.402839E-2,9.76501E-3],"categories":[],"categories_nodes":[],"categories_segments":[],"categories_sizes":[],"default_left":[0,0,0,0,0,0,0,0,0,0,0,0,0,0,0,0,0,0,0,0,0,0,0,0,0,0,0,0,0,0,0,0,0,0,0,0,0,0,0,0,0,0,0,0,0,0,0,0,0,0,0,0,0,0,0,0,0,0,0,0,0,0,0,0,0,0,0,0,0,0,0,0,0,0,0,0,0,0,0,0,0,0,0,0,0,0,0,0,0],"id":12,"left_children":[1,3,5,7,9,11,13,15,17,19,21,23,25,27,29,-1,31,33,35,37,39,-1,41,43,45,-1,47,49,51,53,55,57,-1,-1,59,61,-1,63,65,67,69,-1,-1,71,73,75,77,-1,-1,79,81,-1,83,85,87,-1,-1,-1,-1,-1,-1,-1,-1,-1,-1,-1,-1,-1,-1,-1,-1,-1,-1,-1,-1,-1,-1,-1,-1,-1,-1,-1,-1,-1,-1,-1,-1,-1,-1],"loss_changes":[4.5584893E3,6.448474E1,1.5511523E2,8.898113E0,1.0434326E1,2.6674316E1,2.1647045E1,1.2251763E0,2.6220036E0,1.0849079E1,3.314209E-1,1.5403961E1,3.059082E-1,3.654562E0,5.3342447E0,0E0,1.9438301E0,4.361988E0,2.4524956E0,6.59972E0,4.6077056E0,0E0,3.6633575E-1,1.5186615E0,1.5305729E1,0E0,4.163885E-1,3.291772E0,7.022648E-1,3.4218292E0,9.93729E-1,8.756428E-1,0E0,0E0,1.3451138E0,2.4960747E0,0E0,1.5699005E-1,3.1328633E0,1.5929832E0,1.7585847E0,0E0,0E0,1.1724166E0,1.17482E0,3.8327188E0,3.9934502E0,0E0,0E0,2.0909941E0,2.1523015E0,0E0,9.4882226E-1,8.592696E-1,1.1073055E0,0E0,0E0,0E0,0E0,0E0,0E0,0E0,0E0,0E0,0E0,0E0,0E0,0E0,0E0,0E0,0E0,0E0,0E0,0E0,0E0,0E0,0E0,0E0,0E0,0E0,0E0,0E0,0E0,0E0,0E0,0E0,0E0,0E0,0E0],"parents":[2147483647,0,0,1,1,2,2,3,3,4,4,5,5,6,6,7,7,8,8,9,9,10,10,11,11,12,12,13,13,14,14,16,16,17,17,18,18,19,19,20,20,22,22,23,23,24,24,26,26,27,27,28,28,29,29,30,30,31,31,34,34,35,35,37,37,38,38,39,39,40,40,43,43,44,44,45,45,46,46,49,49,50,50,52,52,53,53,54,54],"right_children":[2,4,6,8,10,12,14,16,18,20,22,24,26,28,30,-1,32,34,36,38,40,-1,42,44,46,-1,48,50,52,54,56,58,-1,-1,60,62,-1,64,66,68,70,-1,-1,72,74,76,78,-1,-1,80,82,-1,84,86,88,-1,-1,-1,-1,-1,-1,-1,-1,-1,-1,-1,-1,-1,-1,-1,-1,-1,-1,-1,-1,-1,-1,-1,-1,-1,-1,-1,-1,-1,-1,-1,-1,-1,-1],"split_conditions":[6.629433E2,2.8241112E1,3.38046E1,5.868303E2,3.409249E1,7.59599E2,7.5238696E2,5E0,2.678242E1,2.2977045E4,2.4954758E4,2.8547237E1,4E0,3.7033268E1,3.855549E1,-2.5649235E-2,2.9983066E-2,3E0,1E0,6.003378E2,-1.8369701E-16,-3.488643E-2,7E0,-8.660254E-1,2.0800154E4,5.7624336E-2,6E0,2.2977045E4,1E0,2.1372016E4,-1.8369701E-16,-8.521048E-3,2.800691E-2,7.628016E-4,2E0,1.1E1,-1.1442866E-2,5.868303E2,3.008118E1,6.1640985E2,1E0,-2.6244188E-2,-1.1680317E-3,7.302761E2,1E0,5E0,-9.659258E-1,1.2430951E-2,4.4848144E-2,1E0,2.4602967E4,-3.139928E-2,2.3101893E4,7.96198E2,2E0,4.7835913E-3,-2.7076354E-2,6.3528954E-3,-2.3144351E-2,5.7612993E-2,2.0545071E-2,5.1015675E-2,4.966689E-4,-3.4230668E-2,-2.2152236E-2,1.1507991E-2,-1.7700836E-2,1.2688632E-2,5.2351344E-2,-3.0453453E-2,9.100478E-3,3.7385456E-4,3.94705E-2,5.360065E-2,1.9693619E-2,-4.8272135E-3,2.823951E-2,-7.6867393E-3,4.30607E-2,-2.4105601E-2,3.5884094E-3,3.3191726E-2,-9.613601E-3,-2.2995504E-2,7.553216E-3,-1.5918298E-2,1.60913E-2,4.402839E-2,9.76501E-3],"split_indices":[4,5,5,4,5,4,4,10,5,23,23,5,11,5,5,0,24,10,9,4,19,0,3,17,23,0,8,23,12,23,19,24,0,0,9,0,0,4,5,4,9,0,0,4,1,7,17,0,0,12,23,0,23,4,11,0,0,0,0,0,0,0,0,0,0,0,0,0,0,0,0,0,0,0,0,0,0,0,0,0,0,0,0,0,0,0,0,0,0],"split_type":[0,0,0,0,0,0,0,0,0,0,0,0,0,0,0,0,0,0,0,0,0,0,0,0,0,0,0,0,0,0,0,0,0,0,0,0,0,0,0,0,0,0,0,0,0,0,0,0,0,0,0,0,0,0,0,0,0,0,0,0,0,0,0,0,0,0,0,0,0,0,0,0,0,0,0,0,0,0,0,0,0,0,0,0,0,0,0,0,0],"sum_hessian":[6.4395913E3,3.936537E3,2.5030542E3,6.0929585E1,3.8756074E3,2.37907E3,1.2398409E2,1.9020489E1,4.1909096E1,1.9588995E2,3.6797175E3,2.6158313E2,2.117487E3,7.926525E1,4.471884E1,7.010504E0,1.2009985E1,2.6682074E1,1.5227021E1,1.7447063E2,2.1419325E1,3.6733699E3,6.347653E0,1.433872E2,1.1819594E2,2.1107258E3,6.7612557E0,3.880025E1,4.0465004E1,3.6835243E1,7.8835998E0,8.786426E0,3.223559E0,6.0330377E0,2.0649036E1,9.250445E0,5.976576E0,1.2234822E2,5.2122402E1,1.1806931E1,9.612394E0,3.3420355E0,3.0056176E0,7.463586E0,1.3592361E2,4.5170834E1,7.30251E1,3.3513236E0,3.4099321E0,2.8374432E1,1.04258175E1,3.1447628E1,9.017375E0,6.385285E0,3.0449959E1,4.4450254E0,3.4385746E0,3.1229212E0,5.6635046E0,1.5410709E1,5.238327E0,4.278748E0,4.9716973E0,1.0934141E2,1.3006821E1,1.07502575E1,4.1372147E1,7.575871E0,4.2310596E0,5.6310825E0,3.981312E0,3.6663475E0,3.7972386E0,1.3129254E2,4.6310763E0,3.4579315E1,1.0591521E1,3.6331778E0,6.939192E1,1.8766413E1,9.60802E0,6.3992934E0,4.0265236E0,5.942159E0,3.0752158E0,3.1582448E0,3.22704E0,2.6719517E1,3.7304425E0],"tree_param":{"num_deleted":"0","num_feature":"25","num_nodes":"89","size_leaf_vector":"1"}},{"base_weights":[-6.990748E-4,9.7234195E-1,-6.180155E-1,1.1381288E0,-2.1134435E-1,-3.7495382E-2,-6.7187387E-1,4.1778803E-1,1.1517373E0,1.976864E-1,-5.470554E-1,8.59632E-1,-5.029313E-1,-6.8595695E-1,-3.726112E-1,5.8031727E-2,1.0422328E-1,5.8182444E-2,8.595533E-1,-1.9992594E-1,5.955862E-1,-6.5669775E-1,-3.1732407E-1,2.9901478E-1,1.0715076E0,-5.7081264E-1,1.9236442E-1,-3.481787E-2,-5.885497E-1,7.0191246E-1,-5.413446E-1,3.533747E-1,-4.4640154E-1,1.0144341E-1,9.673624E-1,-3.32846E-2,-5.4794826E-2,8.71574E-1,9.539696E-2,-3.7984108E-3,-6.728543E-1,-3.0349834E-2,-6.228528E-1,7.634796E-1,-1.7049493E-1,5.799488E-2,8.404097E-1,9.028046E-2,-5.9530526E-1,5.373872E-1,-3.068097E-1,-8.04598E-2,-6.819596E-1,7.9042904E-2,5.087596E-2,-1.2908585E-1,-6.550559E-1,5.795024E-3,5.464551E-2,-3.0401012E-2,-1.4907226E-3,-1.1592887E-2,2.5339244E-2,4.9903583E-2,2.17549E-2,-1.0696443E-2,1.3348973E-2,3.3576586E-3,4.651849E-2,2.658825E-2,-1.63808E-2,-1.9100295E-2,-3.492352E-2,1.5292286E-2,-1.4749038E-2,-2.1910982E-3,-3.448273E-2,4.9055364E-2,-5.144938E-3,-3.143571E-2,8.047493E-3,2.0700157E-2,4.9457345E-2,2.0309953E-2,-1.4479321E-2,-2.0670753E-2,-3.3077937E-2,-4.6880436E-3,3.870247E-2,-2.812658E-2,-0E0,1.4143477E-2,-1.43510075E-2,-2.3563614E-2,-3.5087895E-2,-1.0850719E-2,2.0173771E-2,-1.2638203E-2,1.6640812E-2,-2.12685E-2,-3.476877E-2],"categories":[],"categories_nodes":[],"categories_segments":[],"categories_sizes":[],"default_left":[0,0,0,0,0,0,0,0,0,0,0,0,0,0,0,0,0,0,0,0,0,0,0,0,0,0,0,0,0,0,0,0,0,0,0,0,0,0,0,0,0,0,0,0,0,0,0,0,0,0,0,0,0,0,0,0,0,0,0,0,0,0,0,0,0,0,0,0,0,0,0,0,0,0,0,0,0,0,0,0,0,0,0,0,0,0,0,0,0,0,0,0,0,0,0,0,0,0,0,0,0],"id":13,"left_children":[1,3,5,7,9,11,13,15,17,19,21,23,25,27,29,-1,31,-1,33,35,37,39,41,43,45,47,49,-1,51,53,55,57,59,61,63,-1,65,67,69,-1,71,73,75,77,79,-1,81,83,85,87,89,91,93,95,-1,97,99,-1,-1,-1,-1,-1,-1,-1,-1,-1,-1,-1,-1,-1,-1,-1,-1,-1,-1,-1,-1,-1,-1,-1,-1,-1,-1,-1,-1,-1,-1,-1,-1,-1,-1,-1,-1,-1,-1,-1,-1,-1,-1,-1,-1],"loss_changes":[3.8892852E3,4.9353394E2,1.2376904E2,2.0974365E1,4.2646637E1,1.4134671E2,1.4916748E1,9.671747E0,6.3259277E0,2.2328426E1,3.9863396E0,1.3273926E1,1.0670723E1,2.9675293E0,3.0358774E1,0E0,4.4202023E0,0E0,7.0597916E0,4.6714573E0,9.540846E0,9.447403E-1,4.9381785E0,7.434517E0,5.283356E-1,3.3994522E0,3.7096283E0,0E0,1.6064545E1,4.2935066E0,6.570099E0,3.6373053E0,5.9251904E-1,1.8066326E0,6.906357E-1,0E0,2.8766441E0,1.9720917E0,5.0474577E0,0E0,4.5015717E-1,2.8255832E0,9.610653E-1,3.3924007E0,2.76512E0,0E0,1.1632977E0,1.0884889E0,1.9871979E0,2.0185955E0,7.1431935E-1,4.1562986E0,7.53067E-1,9.573067E-1,0E0,1.9320114E0,6.3064957E-1,0E0,0E0,0E0,0E0,0E0,0E0,0E0,0E0,0E0,0E0,0E0,0E0,0E0,0E0,0E0,0E0,0E0,0E0,0E0,0E0,0E0,0E0,0E0,0E0,0E0,0E0,0E0,0E0,0E0,0E0,0E0,0E0,0E0,0E0,0E0,0E0,0E0,0E0,0E0,0E0,0E0,0E0,0E0,0E0],"parents":[2147483647,0,0,1,1,2,2,3,3,4,4,5,5,6,6,7,7,8,8,9,9,10,10,11,11,12,12,13,13,14,14,16,16,18,18,19,19,20,20,21,21,22,22,23,23,24,24,25,25,26,26,28,28,29,29,30,30,31,31,32,32,33,33,34,34,36,36,37,37,38,38,40,40,41,41,42,42,43,43,44,44,46,46,47,47,48,48,49,49,50,50,51,51,52,52,53,53,55,55,56,56],"right_children":[2,4,6,8,10,12,14,16,18,20,22,24,26,28,30,-1,32,-1,34,36,38,40,42,44,46,48,50,-1,52,54,56,58,60,62,64,-1,66,68,70,-1,72,74,76,78,80,-1,82,84,86,88,90,92,94,96,-1,98,100,-1,-1,-1,-1,-1,-1,-1,-1,-1,-1,-1,-1,-1,-1,-1,-1,-1,-1,-1,-1,-1,-1,-1,-1,-1,-1,-1,-1,-1,-1,-1,-1,-1,-1,-1,-1,-1,-1,-1,-1,-1,-1,-1,-1],"split_conditions":[3.0106992E2,1.346615E4,6.4275126E0,4.2569355E1,1.5292391E4,1.3366185E4,4.7740646E1,1.0798209E4,1.2431194E4,4.6499077E1,4.7740646E1,4.5557503E1,5.15924E1,4.301396E1,1.3765995E4,5.8031727E-2,7.1983924E0,5.8182444E-2,4.477234E1,4.109379E1,6.8761067E0,4.437545E0,1.6709814E4,1.2173266E4,1.19218955E4,3.1271675E0,1.6127602E4,-3.481787E-2,1.4612689E4,4.9660686E1,1.5530313E4,5E-1,3.5579775E-2,-1.8369701E-16,1.3366185E4,-3.32846E-2,7E0,1.1579942E2,1.436101E4,-3.7984108E-3,1.5530313E4,2.3151492E2,4.8496933E0,5.6406875E0,-1.8369701E-16,5.799488E-2,4.7891037E1,1.7559259E0,1.4944054E4,-7.0710677E-1,5E0,7.459859E0,1.5451893E4,7E0,5.087596E-2,1E0,1.6445086E4,5.795024E-3,5.464551E-2,-3.0401012E-2,-1.4907226E-3,-1.1592887E-2,2.5339244E-2,4.9903583E-2,2.17549E-2,-1.0696443E-2,1.3348973E-2,3.3576586E-3,4.651849E-2,2.658825E-2,-1.63808E-2,-1.9100295E-2,-3.492352E-2,1.5292286E-2,-1.4749038E-2,-2.1910982E-3,-3.448273E-2,4.9055364E-2,-5.144938E-3,-3.143571E-2,8.047493E-3,2.0700157E-2,4.9457345E-2,2.0309953E-2,-1.4479321E-2,-2.0670753E-2,-3.3077937E-2,-4.6880436E-3,3.870247E-2,-2.812658E-2,-0E0,1.4143477E-2,-1.43510075E-2,-2.3563614E-2,-3.5087895E-2,-1.0850719E-2,2.0173771E-2,-1.2638203E-2,1.6640812E-2,-2.12685E-2,-3.476877E-2],"split_indices":[4,23,6,5,23,23,5,23,23,5,5,5,5,5,23,0,6,0,5,5,6,6,23,23,23,6,23,0,23,5,23,17,24,19,23,0,8,4,23,0,23,4,6,6,19,0,5,20,23,16,8,6,23,8,0,1,23,0,0,0,0,0,0,0,0,0,0,0,0,0,0,0,0,0,0,0,0,0,0,0,0,0,0,0,0,0,0,0,0,0,0,0,0,0,0,0,0,0,0,0,0],"split_type":[0,0,0,0,0,0,0,0,0,0,0,0,0,0,0,0,0,0,0,0,0,0,0,0,0,0,0,0,0,0,0,0,0,0,0,0,0,0,0,0,0,0,0,0,0,0,0,0,0,0,0,0,0,0,0,0,0,0,0,0,0,0,0,0,0,0,0,0,0,0,0,0,0,0,0,0,0,0,0,0,0,0,0,0,0,0,0,0,0,0,0,0,0,0,0,0,0,0,0,0,0],"sum_hessian":[6.472925E3,2.5122578E3,3.9606672E3,2.2037273E3,3.0853064E2,3.3656015E2,3.624107E3,4.1584377E1,2.1621428E3,1.3912898E2,1.6940164E2,1.1460238E2,2.2195778E2,3.4596711E3,1.6443588E2,1.1446609E1,3.0137768E1,2.074256E3,8.788663E1,6.971278E1,6.941621E1,1.1311986E2,5.628178E1,3.222339E1,8.237899E1,2.0250974E2,1.9448051E1,3.1194275E3,3.4024368E2,2.1807755E1,1.4262813E2,2.1120724E1,9.017044E0,1.1299248E1,7.658738E1,1.5545879E1,5.416691E1,4.412634E1,2.5289864E1,3.3838067E0,1.0973605E2,2.975779E1,2.6523989E1,1.599104E1,1.6232347E1,5.636774E1,2.6011248E1,6.992849E0,1.9551688E2,1.1572836E1,7.875217E0,5.3293472E1,2.869502E2,7.8609586E0,1.3946796E1,3.1487019E1,1.11141106E2,1.696499E1,4.155733E0,5.992591E0,3.0244527E0,6.3001204E0,4.999128E0,7.140463E1,5.1827435E0,3.6675106E1,1.7491802E1,3.2673063E0,4.0859035E1,1.2438241E1,1.2851623E1,1.0486588E1,9.9249466E1,1.2871632E1,1.6886158E1,3.069638E0,2.3454351E1,1.2767054E1,3.2239869E0,6.563371E0,9.668977E0,7.879039E0,1.8132208E1,3.923651E0,3.0691977E0,5.453833E1,1.4097855E2,3.2054863E0,8.367349E0,3.8974662E0,3.9777508E0,1.9007202E1,3.428627E1,2.7212944E1,2.5973727E2,4.122177E0,3.7387815E0,2.5364683E1,6.1223354E0,1.8691652E1,9.2449455E1],"tree_param":{"num_deleted":"0","num_feature":"25","num_nodes":"101","size_leaf_vector":"1"}},{"base_weights":[1.3357344E-3,-6.527649E-1,4.0773082E-1,-6.92874E-1,-3.5285246E-1,9.408359E-1,-5.6990385E-1,-3.492547E-2,-6.064024E-1,-2.1169369E-1,-3.4493398E-2,1.0038826E0,4.8304087E-1,-1.4390694E-1,-6.516423E-1,-3.0811364E-2,-1.5508341E-2,-3.2074502E-1,2.5028238E-1,5.5018854E-1,1.0982325E0,9.8410165E-1,2.4926515E-1,4.33792E-1,-2.938569E-1,-4.8851338E-1,-6.837386E-1,-3.3961784E-2,-2.6028252E-1,7.221718E-1,1.3316229E-1,2.7402678E-1,8.408932E-1,1.1186514E0,9.383142E-1,8.1603837E-1,5.674159E-2,4.080843E-1,5.6840498E-2,2.7946988E-1,4.6556376E-2,1.0777242E-1,-3.5380626E-1,-5.241494E-1,2.7251053E-1,-4.2831838E-1,-3.446084E-2,-8.986596E-3,-2.6483728E-2,1.5434547E-2,4.6828017E-2,1.100528E-2,-2.6643572E-2,-4.455512E-3,2.2274101E-2,4.3276917E-2,-5.157557E-3,1.7353293E-2,5.610938E-2,4.9251083E-2,2.8752808E-2,2.3005642E-2,4.5173395E-2,3.1055436E-3,2.6207333E-2,-3.0585304E-3,1.5892794E-2,-2.6306102E-2,1.840145E-2,3.6995932E-2,-2.6134984E-3,-1.8847166E-2,2.4574986E-2,-7.127973E-3,-2.7845496E-2,3.170907E-2,-2.781216E-3,-3.036792E-2,3.411973E-3],"categories":[],"categories_nodes":[],"categories_segments":[],"categories_sizes":[],"default_left":[0,0,0,0,0,0,0,0,0,0,0,0,0,0,0,0,0,0,0,0,0,0,0,0,0,0,0,0,0,0,0,0,0,0,0,0,0,0,0,0,0,0,0,0,0,0,0,0,0,0,0,0,0,0,0,0,0,0,0,0,0,0,0,0,0,0,0,0,0,0,0,0,0,0,0,0,0,0,0],"id":14,"left_children":[1,3,5,7,9,11,13,-1,15,17,-1,19,21,23,25,-1,-1,27,29,31,33,35,37,39,41,43,45,-1,47,49,51,53,55,57,59,61,-1,63,65,67,-1,69,71,73,75,77,-1,-1,-1,-1,-1,-1,-1,-1,-1,-1,-1,-1,-1,-1,-1,-1,-1,-1,-1,-1,-1,-1,-1,-1,-1,-1,-1,-1,-1,-1,-1,-1,-1],"loss_changes":[1.7153842E3,2.9397339E1,2.0750557E3,5.081787E-1,1.3751598E1,7.372217E1,4.875363E1,0E0,1.2962341E-1,1.0610666E1,0E0,9.611182E1,3.6407875E1,1.9837036E1,5.718872E0,0E0,0E0,3.405489E0,2.0443623E0,3.111412E1,4.8586426E0,1.397049E0,6.5179024E0,3.240302E0,4.432781E0,5.53117E0,9.666443E-1,0E0,3.0234575E0,2.6123285E-1,2.03544E0,1.2689358E1,4.5913086E0,3.9785156E0,2.9892883E0,1.0310783E0,0E0,4.6327534E0,3.0919147E0,2.8599126E0,0E0,2.5479565E0,3.271328E0,2.218113E0,1.2061391E0,2.1968122E0,0E0,0E0,0E0,0E0,0E0,0E0,0E0,0E0,0E0,0E0,0E0,0E0,0E0,0E0,0E0,0E0,0E0,0E0,0E0,0E0,0E0,0E0,0E0,0E0,0E0,0E0,0E0,0E0,0E0,0E0,0E0,0E0,0E0],"parents":[2147483647,0,0,1,1,2,2,3,3,4,4,5,5,6,6,8,8,9,9,11,11,12,12,13,13,14,14,17,17,18,18,19,19,20,20,21,21,22,22,23,23,24,24,25,25,26,26,28,28,29,29,30,30,31,31,32,32,33,33,34,34,35,35,37,37,38,38,39,39,41,41,42,42,43,43,44,44,45,45],"right_children":[2,4,6,8,10,12,14,-1,16,18,-1,20,22,24,26,-1,-1,28,30,32,34,36,38,40,42,44,46,-1,48,50,52,54,56,58,60,62,-1,64,66,68,-1,70,72,74,76,78,-1,-1,-1,-1,-1,-1,-1,-1,-1,-1,-1,-1,-1,-1,-1,-1,-1,-1,-1,-1,-1,-1,-1,-1,-1,-1,-1,-1,-1,-1,-1,-1,-1],"split_conditions":[1.2817447E4,1.1356781E4,1.3330837E1,1.050497E4,1.1919426E1,1.1919426E1,1.4482616E1,-3.492547E-2,1.27E2,7.6434984E0,-3.4493398E-2,1.4779791E4,1E0,1E0,1.5485421E1,-3.0811364E-2,-1.5508341E-2,3.8264682E0,5E0,6.8761067E0,1.1066193E1,4E0,4E0,4E0,-2.8449139E-2,6E0,1E0,-3.3961784E-2,8E0,1.761656E0,7.0710677E-1,1.346615E4,6E0,3.3765438E0,2.2977045E4,-5E-1,5.674159E-2,1E1,7E0,-2.5884748E-2,4.6556376E-2,1.34554825E1,6E0,1E0,1.4868086E1,2.2645496E4,-3.446084E-2,-8.986596E-3,-2.6483728E-2,1.5434547E-2,4.6828017E-2,1.100528E-2,-2.6643572E-2,-4.455512E-3,2.2274101E-2,4.3276917E-2,-5.157557E-3,1.7353293E-2,5.610938E-2,4.9251083E-2,2.8752808E-2,2.3005642E-2,4.5173395E-2,3.1055436E-3,2.6207333E-2,-3.0585304E-3,1.5892794E-2,-2.6306102E-2,1.840145E-2,3.6995932E-2,-2.6134984E-3,-1.8847166E-2,2.4574986E-2,-7.127973E-3,-2.7845496E-2,3.170907E-2,-2.781216E-3,-3.036792E-2,3.411973E-3],"split_indices":[23,23,6,23,6,6,6,0,22,6,0,23,15,15,6,0,0,6,10,6,6,10,7,10,24,10,15,0,8,20,17,23,10,6,23,18,0,0,8,24,0,6,10,15,6,23,0,0,0,0,0,0,0,0,0,0,0,0,0,0,0,0,0,0,0,0,0,0,0,0,0,0,0,0,0,0,0,0,0],"split_type":[0,0,0,0,0,0,0,0,0,0,0,0,0,0,0,0,0,0,0,0,0,0,0,0,0,0,0,0,0,0,0,0,0,0,0,0,0,0,0,0,0,0,0,0,0,0,0,0,0,0,0,0,0,0,0,0,0,0,0,0,0,0,0,0,0,0,0,0,0,0,0,0,0,0,0,0,0,0,0],"sum_hessian":[6.4511904E3,2.4718494E3,3.9793413E3,2.1788193E3,2.9302994E2,2.5752144E3,1.4041268E3,2.0377831E3,1.4103627E2,2.0788309E2,8.5146866E1,2.2622498E3,3.1296463E2,2.2668657E2,1.1774403E3,1.3513658E2,5.89969E0,1.6860529E2,3.927779E1,3.908217E2,1.8714281E3,9.8407196E1,2.1455743E2,4.6186832E1,1.8049974E2,1.9675792E2,9.806824E2,2.2617146E1,1.4598814E2,6.613079E0,3.2664715E1,2.0159674E2,1.8922496E2,1.6536635E3,2.1776463E2,4.987461E1,4.853259E1,1.1664399E2,9.7913445E1,3.659461E1,9.592221E0,2.3122877E1,1.5737686E2,1.8837944E2,8.378474E0,2.2637423E1,9.58045E2,1.13953445E2,3.20347E1,3.2504334E0,3.3626454E0,2.9618073E1,3.04664E0,6.462338E1,1.3697336E2,1.8459503E2,4.629934E0,8.125658E0,1.6455377E3,1.9119412E2,2.6570507E1,1.1295816E1,3.8578796E1,2.9902775E1,8.674121E1,6.769121E1,3.0222237E1,3.0232296E0,3.357138E1,4.065653E0,1.9057224E1,1.538385E2,3.53837E0,1.5558637E1,1.728208E2,3.6868682E0,4.691606E0,1.66223E1,6.0151243E0],"tree_param":{"num_deleted":"0","num_feature":"25","num_nodes":"79","size_leaf_vector":"1"}},{"base_weights":[-2.0650125E-3,-6.62697E-1,9.9605644E-1,-6.8023837E-1,1.1022939E-1,-7.2461575E-2,1.0472072E0,-3.433497E-2,-4.5844784E-1,-1.830962E-1,5.4788834E-1,-3.106707E-1,6.3808084E-1,6.4250225E-1,1.081432E0,-5.8238757E-1,-9.2023544E-2,-3.323095E-2,-1.9438175E-2,3.2985818E-1,4.82384E-2,-5.3868914E-1,-1.5769709E-2,7.561389E-4,7.5898325E-1,3.2143405E-1,8.9298964E-1,8.855284E-1,1.0934379E0,-6.249402E-1,-3.785044E-1,1.6640757E-1,-4.3452036E-1,1.02523595E-1,-3.0835306E-2,1.522495E-1,3.6989886E-2,-1.1755784E-1,-6.0128146E-1,3.9435816E-1,-1.5562898E-1,2.0666416E-3,9.182824E-1,-2.3543106E-1,4.3636942E-1,7.6319385E-1,5.6319572E-2,9.2899877E-1,1.6078398E-1,5.4715734E-2,2.0597547E-2,-3.3226773E-2,-1.926199E-2,-3.1587273E-2,-0E0,-3.7666527E-3,2.4203008E-2,-6.803307E-4,-3.1529143E-2,-4.8004384E-3,3.6677912E-2,1.45653365E-2,-1.7952556E-2,-1.7216457E-2,7.8676045E-3,-3.300104E-2,-1.6288314E-2,-9.548029E-3,4.318691E-2,1.8143734E-2,-1.1600504E-2,5.192711E-2,2.2976376E-2,-2.5754547E-2,2.760244E-3,2.5267044E-2,-2.0967264E-2,5.0866916E-3,4.112711E-2,1.4049539E-2,4.7923516E-2,-1.9517502E-2,3.1932894E-2],"categories":[],"categories_nodes":[],"categories_segments":[],"categories_sizes":[],"default_left":[0,0,0,0,0,0,0,0,0,0,0,0,0,0,0,0,0,0,0,0,0,0,0,0,0,0,0,0,0,0,0,0,0,0,0,0,0,0,0,0,0,0,0,0,0,0,0,0,0,0,0,0,0,0,0,0,0,0,0,0,0,0,0,0,0,0,0,0,0,0,0,0,0,0,0,0,0,0,0,0,0,0,0],"id":15,"left_children":[1,3,5,7,9,11,13,-1,15,17,19,21,23,25,27,29,31,-1,33,35,-1,37,39,-1,41,43,45,47,49,51,53,55,57,59,-1,61,-1,63,65,67,69,-1,71,73,75,77,-1,79,81,-1,-1,-1,-1,-1,-1,-1,-1,-1,-1,-1,-1,-1,-1,-1,-1,-1,-1,-1,-1,-1,-1,-1,-1,-1,-1,-1,-1,-1,-1,-1,-1,-1,-1],"loss_changes":[4.199385E3,5.2090332E1,1.3880054E2,4.940674E0,1.1148419E1,1.9920834E1,3.266089E1,0E0,4.852936E0,4.0140924E0,2.715991E0,5.8662395E0,2.1350079E0,1.498764E1,4.079834E0,3.697548E-1,2.6724913E0,0E0,3.026325E0,1.5842493E0,0E0,1.162591E0,2.3133662E0,0E0,2.675313E0,5.603838E0,2.1868973E0,3.979889E0,6.508789E-1,2.601452E-1,1.6097727E0,1.3925257E0,9.954243E-1,4.3826876E0,0E0,1.4163728E0,0E0,5.62677E-1,3.7675285E-1,3.031997E0,1.2784669E0,0E0,4.7349548E-1,1.3059506E0,4.4395075E0,2.6507912E0,0E0,2.0240326E0,2.6317937E0,0E0,0E0,0E0,0E0,0E0,0E0,0E0,0E0,0E0,0E0,0E0,0E0,0E0,0E0,0E0,0E0,0E0,0E0,0E0,0E0,0E0,0E0,0E0,0E0,0E0,0E0,0E0,0E0,0E0,0E0,0E0,0E0,0E0,0E0],"parents":[2147483647,0,0,1,1,2,2,3,3,4,4,5,5,6,6,8,8,9,9,10,10,11,11,12,12,13,13,14,14,15,15,16,16,18,18,19,19,21,21,22,22,24,24,25,25,26,26,27,27,28,28,29,29,30,30,31,31,32,32,33,33,35,35,37,37,38,38,39,39,40,40,42,42,43,43,44,44,45,45,47,47,48,48],"right_children":[2,4,6,8,10,12,14,-1,16,18,20,22,24,26,28,30,32,-1,34,36,-1,38,40,-1,42,44,46,48,50,52,54,56,58,60,-1,62,-1,64,66,68,70,-1,72,74,76,78,-1,80,82,-1,-1,-1,-1,-1,-1,-1,-1,-1,-1,-1,-1,-1,-1,-1,-1,-1,-1,-1,-1,-1,-1,-1,-1,-1,-1,-1,-1,-1,-1,-1,-1,-1,-1],"split_conditions":[6.5456616E2,1.3330837E1,1.1811702E1,6.088448E2,6.241738E2,7.6692554E2,1.34554825E1,-3.433497E-2,1.2383644E1,-7.6669794E-1,1.4995521E1,1.0948263E1,1.038164E1,7.423306E2,7.357575E2,1.1724509E1,3.468498E-2,-3.323095E-2,1E0,2.3101893E4,4.82384E-2,-8.660254E-1,1.1168227E1,7.561389E-4,3E0,6.7059064E2,8.5797955E2,1E0,2.1E1,8.660254E-1,1.2591602E-2,1E0,3E0,2.275421E4,-3.0835306E-2,4.525767E4,3.6989886E-2,1.5647018E-2,2.2260281E4,1.9925467E4,9E0,2.0666416E-3,8E0,2.144696E4,1E0,1E0,5.6319572E-2,-8.660254E-1,-1.8369701E-16,5.4715734E-2,2.0597547E-2,-3.3226773E-2,-1.926199E-2,-3.1587273E-2,-0E0,-3.7666527E-3,2.4203008E-2,-6.803307E-4,-3.1529143E-2,-4.8004384E-3,3.6677912E-2,1.45653365E-2,-1.7952556E-2,-1.7216457E-2,7.8676045E-3,-3.300104E-2,-1.6288314E-2,-9.548029E-3,4.318691E-2,1.8143734E-2,-1.1600504E-2,5.192711E-2,2.2976376E-2,-2.5754547E-2,2.760244E-3,2.5267044E-2,-2.0967264E-2,5.0866916E-3,4.112711E-2,1.4049539E-2,4.7923516E-2,-1.9517502E-2,3.1932894E-2],"split_indices":[4,6,6,4,4,4,6,0,6,17,6,6,6,4,4,6,24,0,1,23,0,19,6,0,8,4,4,1,0,19,24,12,8,23,0,21,0,24,23,23,0,0,3,23,1,8,0,17,19,0,0,0,0,0,0,0,0,0,0,0,0,0,0,0,0,0,0,0,0,0,0,0,0,0,0,0,0,0,0,0,0,0,0],"split_type":[0,0,0,0,0,0,0,0,0,0,0,0,0,0,0,0,0,0,0,0,0,0,0,0,0,0,0,0,0,0,0,0,0,0,0,0,0,0,0,0,0,0,0,0,0,0,0,0,0,0,0,0,0,0,0,0,0,0,0,0,0,0,0,0,0,0,0,0,0,0,0,0,0,0,0,0,0,0,0,0,0,0,0],"sum_hessian":[6.3666313E3,3.8312544E3,2.5353767E3,3.7464785E3,8.477596E1,1.15717545E2,2.4196592E3,3.6379546E3,1.08523735E2,5.096896E1,3.3807003E1,8.7190475E1,2.8527075E1,1.9043802E2,2.2292212E3,8.044997E1,2.8073769E1,1.199744E1,3.897152E1,2.3531199E1,1.0275803E1,4.8513725E1,3.8676746E1,4.9539104E0,2.3573164E1,8.4636116E1,1.058019E2,1.3352649E2,2.0956946E3,6.4444115E1,1.600585E1,1.6127169E1,1.1946601E1,3.2911854E1,6.0596647E0,1.754504E1,5.9861584E0,6.856676E0,4.165705E1,9.190765E0,2.9485981E1,4.624914E0,1.894825E1,1.4151801E1,7.0484314E1,7.1010796E1,3.4791107E1,1.2557467E2,7.9518175E0,2.0922505E3,3.4442086E0,5.3428856E1,1.1015264E1,9.138066E0,6.867784E0,9.412264E0,6.7149043E0,4.2983007E0,7.6482997E0,2.5559776E1,7.352079E0,1.4285649E1,3.2593915E0,3.8182597E0,3.0384164E0,3.2887047E1,8.770002E0,4.259397E0,4.931368E0,3.1362E0,2.6349781E1,1.3838708E1,5.1095414E0,6.9938564E0,7.157945E0,6.571401E1,4.7703013E0,6.2089405E0,6.480186E1,6.0685897E0,1.1950608E2,3.6807199E0,4.2710977E0],"tree_param":{"num_deleted":"0","num_feature":"25","num_nodes":"83","size_leaf_vector":"1"}},{"base_weights":[3.7306332E-4,9.2279196E-1,-6.0473496E-1,1.0428964E0,1.5354343E-1,-4.778697E-3,-6.590757E-1,5.5023444E-1,1.0747539E0,-2.4162953E-1,6.521016E-1,-2.165542E-1,6.1581856E-1,-6.7609537E-1,-3.1165344E-1,1.0003794E0,3.6837485E-1,5.466023E-2,8.98039E-1,-6.520448E-2,-5.524063E-1,7.392818E-1,2.7722342E-2,5.600745E-1,-3.02401E-1,8.4236884E-1,2.6495343E-1,-5.8770674E-1,-3.438045E-2,-1.9320798E-1,-5.7893294E-1,1.5093097E-2,1.0743576E0,-3.4377816E-1,4.6900043E-1,6.613846E-1,1.0155512E0,-4.1671267E-1,9.802331E-2,1.7334037E-2,-6.023719E-1,7.9928416E-1,8.995165E-2,4.0376472E-1,-2.4841097E-1,7.063022E-1,-7.155036E-3,-1.60715E-1,-5.664841E-1,1.0043825E0,4.52042E-1,-3.0294606E-2,6.5427387E-1,-3.2378614E-2,-4.7513962E-1,-3.4506541E-1,4.672932E-2,-3.2248773E-2,-2.1563773E-3,5.6340106E-2,2.5636649E-2,2.8066643E-4,-2.5677621E-2,1.705604E-2,4.733376E-2,5.0651807E-2,2.002302E-2,4.3289304E-2,5.407778E-2,-2.7497113E-2,1.9143037E-3,-2.424751E-3,3.274462E-2,-3.1988032E-2,-1.0157804E-2,4.809952E-2,3.2972734E-2,-5.677487E-3,2.6716257E-2,3.4636583E-2,-3.5477437E-3,-2.0189203E-2,5.810328E-3,4.3176066E-2,8.543146E-3,-1.9112708E-2,6.736831E-3,-2.9357636E-2,-1.5522685E-3,3.255018E-2,5.5670608E-2,-3.4329921E-3,2.937277E-2,-2.512675E-2,1.1589917E-2,1.0652396E-2,4.446116E-2,-7.2441376E-3,-2.6638065E-2,-2.3451535E-2,-3.1887502E-3,1.5108694E-2,-1.4472459E-2],"categories":[],"categories_nodes":[],"categories_segments":[],"categories_sizes":[],"default_left":[0,0,0,0,0,0,0,0,0,0,0,0,0,0,0,0,0,0,0,0,0,0,0,0,0,0,0,0,0,0,0,0,0,0,0,0,0,0,0,0,0,0,0,0,0,0,0,0,0,0,0,0,0,0,0,0,0,0,0,0,0,0,0,0,0,0,0,0,0,0,0,0,0,0,0,0,0,0,0,0,0,0,0,0,0,0,0,0,0,0,0,0,0,0,0,0,0,0,0,0,0,0,0],"id":16,"left_children":[1,3,5,7,9,11,13,15,17,19,21,23,25,27,29,31,33,-1,35,37,39,41,43,45,47,49,51,53,-1,55,57,-1,59,61,63,65,67,69,71,-1,73,75,77,79,81,83,-1,85,87,89,91,93,95,-1,97,99,101,-1,-1,-1,-1,-1,-1,-1,-1,-1,-1,-1,-1,-1,-1,-1,-1,-1,-1,-1,-1,-1,-1,-1,-1,-1,-1,-1,-1,-1,-1,-1,-1,-1,-1,-1,-1,-1,-1,-1,-1,-1,-1,-1,-1,-1,-1],"loss_changes":[3.5365398E3,2.316167E2,1.2466626E2,3.3315674E1,6.723339E1,4.2007965E1,2.0433716E1,1.0470966E1,5.4628906E0,1.0342837E1,8.112862E0,1.6053831E1,6.12694E0,2.8707275E0,5.064886E0,1.4935036E0,7.1421003E0,0E0,4.6878357E0,7.1188054E0,3.3168755E0,4.988632E0,2.1571653E0,2.6238813E0,7.9051895E0,2.4836922E0,3.935509E0,2.2296295E0,0E0,4.300189E0,1.6797981E0,0E0,2.5080872E-1,7.947221E-1,4.786188E0,5.792759E0,1.6043091E-1,2.456233E0,6.985099E0,0E0,7.6302147E-1,1.9499893E0,1.2284212E0,1.3264339E0,7.442268E-1,1.4447842E0,0E0,9.370224E0,7.4617577E-1,3.8776398E-1,1.241611E0,2.6034164E0,1.218854E0,0E0,2.5352077E0,2.4232044E0,4.0287046E0,0E0,0E0,0E0,0E0,0E0,0E0,0E0,0E0,0E0,0E0,0E0,0E0,0E0,0E0,0E0,0E0,0E0,0E0,0E0,0E0,0E0,0E0,0E0,0E0,0E0,0E0,0E0,0E0,0E0,0E0,0E0,0E0,0E0,0E0,0E0,0E0,0E0,0E0,0E0,0E0,0E0,0E0,0E0,0E0,0E0,0E0],"parents":[2147483647,0,0,1,1,2,2,3,3,4,4,5,5,6,6,7,7,8,8,9,9,10,10,11,11,12,12,13,13,14,14,15,15,16,16,18,18,19,19,20,20,21,21,22,22,23,23,24,24,25,25,26,26,27,27,29,29,30,30,32,32,33,33,34,34,35,35,36,36,37,37,38,38,40,40,41,41,42,42,43,43,44,44,45,45,47,47,48,48,49,49,50,50,51,51,52,52,54,54,55,55,56,56],"right_children":[2,4,6,8,10,12,14,16,18,20,22,24,26,28,30,32,34,-1,36,38,40,42,44,46,48,50,52,54,-1,56,58,-1,60,62,64,66,68,70,72,-1,74,76,78,80,82,84,-1,86,88,90,92,94,96,-1,98,100,102,-1,-1,-1,-1,-1,-1,-1,-1,-1,-1,-1,-1,-1,-1,-1,-1,-1,-1,-1,-1,-1,-1,-1,-1,-1,-1,-1,-1,-1,-1,-1,-1,-1,-1,-1,-1,-1,-1,-1,-1,-1,-1,-1,-1,-1,-1],"split_conditions":[3.0106992E2,6.552237E0,6.374065E0,4.5885124E1,4.7559013E1,4.9870247E1,4.7740646E1,4.1735654E0,2.3552888E2,8.334689E0,8.957837E0,3.6317449E0,5.3047895E0,4.1622885E2,4.1622885E2,4.1766445E1,4.0042816E1,5.466023E-2,5.001326E1,4.226301E1,1.5264862E2,2.8584283E2,2.3151492E2,4.2006253E2,4.018588E2,3.522229E2,5.296058E1,4.346111E1,-3.438045E-2,7E0,5.2410194E1,1.5093097E-2,4.5557503E1,-1.11926594E-4,5E-1,4.9155917E0,5.2410194E1,6.123234E-17,6.0164683E-2,1.7334037E-2,7.840859E-2,2.0360811E2,-1.8369701E-16,9.65742E0,4.1672252E-2,8E0,-7.155036E-3,4.5221363E1,4E0,-2.5881904E-1,4E0,3E0,1E0,-3.2378614E-2,4.410613E1,3.987163E-2,7.8808613E0,-3.2248773E-2,-2.1563773E-3,5.6340106E-2,2.5636649E-2,2.8066643E-4,-2.5677621E-2,1.705604E-2,4.733376E-2,5.0651807E-2,2.002302E-2,4.3289304E-2,5.407778E-2,-2.7497113E-2,1.9143037E-3,-2.424751E-3,3.274462E-2,-3.1988032E-2,-1.0157804E-2,4.809952E-2,3.2972734E-2,-5.677487E-3,2.6716257E-2,3.4636583E-2,-3.5477437E-3,-2.0189203E-2,5.810328E-3,4.3176066E-2,8.543146E-3,-1.9112708E-2,6.736831E-3,-2.9357636E-2,-1.5522685E-3,3.255018E-2,5.5670608E-2,-3.4329921E-3,2.937277E-2,-2.512675E-2,1.1589917E-2,1.0652396E-2,4.446116E-2,-7.2441376E-3,-2.6638065E-2,-2.3451535E-2,-3.1887502E-3,1.5108694E-2,-1.4472459E-2],"split_indices":[4,6,6,5,5,5,5,6,4,6,6,6,6,4,4,5,5,0,5,5,4,4,4,4,4,4,5,5,0,3,5,0,5,24,17,6,5,17,24,0,24,4,17,6,24,3,0,5,11,16,10,8,9,0,5,24,6,0,0,0,0,0,0,0,0,0,0,0,0,0,0,0,0,0,0,0,0,0,0,0,0,0,0,0,0,0,0,0,0,0,0,0,0,0,0,0,0,0,0,0,0,0,0],"split_type":[0,0,0,0,0,0,0,0,0,0,0,0,0,0,0,0,0,0,0,0,0,0,0,0,0,0,0,0,0,0,0,0,0,0,0,0,0,0,0,0,0,0,0,0,0,0,0,0,0,0,0,0,0,0,0,0,0,0,0,0,0,0,0,0,0,0,0,0,0,0,0,0,0,0,0,0,0,0,0,0,0,0,0,0,0,0,0,0,0,0,0,0,0,0,0,0,0,0,0,0,0,0,0],"sum_hessian":[6.3339766E3,2.5089722E3,3.8250046E3,2.169723E3,3.3924927E2,3.17918E2,3.5070867E3,1.3308165E2,2.0366411E3,1.8942209E2,1.4982718E2,2.3763762E2,8.028037E1,3.3421272E3,1.6495955E2,3.684095E1,9.624069E1,1.8388903E3,1.977509E2,1.2180572E2,6.761636E1,1.3116833E2,1.865883E1,2.2987558E1,2.1465007E2,4.775779E1,3.2522587E1,3.921764E2,2.9499507E3,1.1575812E2,4.9201427E1,4.1440578E0,3.269689E1,1.1492825E1,8.474787E1,6.809519E1,1.2965572E2,3.83276E1,8.347812E1,3.141843E0,6.4474525E1,1.1972044E2,1.1447899E1,7.857842E0,1.0800989E1,1.9144218E1,3.8433402E0,1.4099213E2,7.3657936E1,3.2456596E1,1.5301194E1,1.8874273E1,1.36483135E1,2.5233716E2,1.3983922E2,7.087783E1,4.4880283E1,4.345487E1,5.746559E0,2.8821194E1,3.875699E0,3.881894E0,7.610931E0,6.836828E1,1.637959E1,2.7613838E1,4.048135E1,4.4443897E1,8.5211815E1,2.9655262E1,8.672336E0,6.666988E1,1.6808233E1,5.817325E1,6.301274E0,5.2285667E1,6.743478E1,8.2083235E0,3.2395756E0,4.730029E0,3.127813E0,7.6906457E0,3.110344E0,1.418085E1,4.9633684E0,8.060018E1,6.039195E1,7.064751E1,3.0104299E0,9.512726E0,2.2943869E1,3.1072888E0,1.2193905E1,6.545218E0,1.2329055E1,5.55279E0,8.095523E0,2.1553837E1,1.18285385E2,4.848671E1,2.2391125E1,2.5728867E1,1.9151417E1],"tree_param":{"num_deleted":"0","num_feature":"25","num_nodes":"103","size_leaf_vector":"1"}},{"base_weights":[7.244182E-4,-6.371281E-1,3.8350478E-1,-6.816412E-1,-3.1859022E-1,9.2238444E-1,-5.552252E-1,-3.4369625E-2,-3.0040726E-2,-1.6460812E-1,-3.396355E-2,9.6046233E-1,-6.984699E-2,5.9656624E-2,-6.4693093E-1,-3.6427653E-1,2.888389E-1,4.9391392E-1,1.0264462E0,6.417657E-1,-3.8045952E-1,5.2840054E-1,-2.5468138E-1,-4.520068E-1,-6.7491394E-1,-5.2681726E-1,-1.8787777E-1,7.291038E-2,6.2589544E-1,8.378589E-2,7.368394E-1,1.051592E0,5.8381283E-1,7.5910574E-1,-6.4851246E-3,8.648866E-2,-4.961561E-1,4.56617E-2,2.152606E-1,-7.448421E-2,-5.9858036E-1,-3.2916614E-1,-3.265917E-2,-5.30672E-1,-3.4135103E-2,-2.778633E-2,-1.6631918E-3,1.2036283E-2,-1.2970808E-2,-1.5804037E-2,1.59009E-2,4.0426847E-2,-5.603686E-3,-1.1830433E-2,2.364796E-2,1.9128675E-2,4.304502E-2,3.6305506E-2,5.3263076E-2,4.4856247E-2,1.0433213E-2,4.5440476E-2,1.0411237E-2,1.5764348E-2,-2.6276533E-2,-2.8518638E-2,1.3760072E-3,4.4053127E-3,5.047205E-2,3.1744514E-2,-7.1117724E-3,7.7323364E-3,-3.469918E-2,8.789597E-3,-1.9180859E-2,-1.8010898E-2,-3.372222E-2],"categories":[],"categories_nodes":[],"categories_segments":[],"categories_sizes":[],"default_left":[0,0,0,0,0,0,0,0,0,0,0,0,0,0,0,0,0,0,0,0,0,0,0,0,0,0,0,0,0,0,0,0,0,0,0,0,0,0,0,0,0,0,0,0,0,0,0,0,0,0,0,0,0,0,0,0,0,0,0,0,0,0,0,0,0,0,0,0,0,0,0,0,0,0,0,0,0],"id":17,"left_children":[1,3,5,7,9,11,13,-1,-1,15,-1,17,19,21,23,25,27,29,31,33,35,37,39,41,43,45,47,49,51,53,55,57,59,61,-1,63,65,-1,67,69,71,73,-1,75,-1,-1,-1,-1,-1,-1,-1,-1,-1,-1,-1,-1,-1,-1,-1,-1,-1,-1,-1,-1,-1,-1,-1,-1,-1,-1,-1,-1,-1,-1,-1,-1,-1],"loss_changes":[1.5530077E3,3.350659E1,2.0115137E3,4.3060303E-1,1.6167135E1,9.559253E1,8.187958E1,0E0,0E0,1.894439E1,0E0,7.423364E1,2.1037287E1,2.801135E1,6.4677124E0,3.9870625E0,4.5418377E0,3.0099243E1,2.2932861E1,2.7770653E0,3.665409E0,8.88806E0,6.933184E0,3.6888695E0,7.536316E-1,9.872608E-1,2.2531343E0,3.9447503E0,3.4860277E0,1.4374762E1,7.9124603E0,8.009033E0,1.3451199E1,1.7886963E0,0E0,2.083254E0,2.1473675E0,0E0,4.197448E0,3.690351E0,2.946207E0,2.9167814E0,0E0,1.1624546E0,0E0,0E0,0E0,0E0,0E0,0E0,0E0,0E0,0E0,0E0,0E0,0E0,0E0,0E0,0E0,0E0,0E0,0E0,0E0,0E0,0E0,0E0,0E0,0E0,0E0,0E0,0E0,0E0,0E0,0E0,0E0,0E0,0E0],"parents":[2147483647,0,0,1,1,2,2,3,3,4,4,5,5,6,6,9,9,11,11,12,12,13,13,14,14,15,15,16,16,17,17,18,18,19,19,20,20,21,21,22,22,23,23,24,24,25,25,26,26,27,27,28,28,29,29,30,30,31,31,32,32,33,33,35,35,36,36,38,38,39,39,40,40,41,41,43,43],"right_children":[2,4,6,8,10,12,14,-1,-1,16,-1,18,20,22,24,26,28,30,32,34,36,38,40,42,44,46,48,50,52,54,56,58,60,62,-1,64,66,-1,68,70,72,74,-1,76,-1,-1,-1,-1,-1,-1,-1,-1,-1,-1,-1,-1,-1,-1,-1,-1,-1,-1,-1,-1,-1,-1,-1,-1,-1,-1,-1,-1,-1,-1,-1,-1,-1],"split_conditions":[1.2817447E4,1.1356781E4,6.9745557E2,1.050497E4,5.796708E2,1.4101976E1,1.3222046E1,-3.4369625E-2,-3.0040726E-2,3.1490137E2,-3.396355E-2,1.4430438E4,